6913 50
Harry 0.310206 -0.554693 -0.108570 0.030821 0.471849 0.331514 -0.131728 -0.359969 0.004382 -0.059034 -0.107756 0.081407 0.200375 -0.193944 0.411620 0.141407 0.156955 0.327997 -0.169302 0.151271 -0.438591 -0.017969 -0.016363 -0.011574 -0.383513 -0.509124 -0.132271 -0.425221 -0.257881 0.024314 -0.414459 0.116903 0.409015 -0.407151 -0.074078 -0.054894 0.244897 0.496054 -0.385940 -0.094217 -0.442625 0.225327 0.218166 -0.369027 0.340586 0.228628 0.039093 -0.162095 -0.057461 0.151739
Potter 0.248058 -0.491273 -0.557611 -0.544106 -0.064351 -0.427849 -0.435207 -0.500926 0.006636 -0.413601 -0.040579 -0.273038 0.274151 0.326091 -0.619666 -0.004608 -0.137787 -0.710372 -0.184952 -0.311763 0.056078 -0.622012 -0.087436 0.090897 -0.376643 0.233736 -0.451677 -0.115105 -0.349980 -0.437716 -0.012273 -0.599432 -0.230582 -0.434030 0.110488 -0.572480 -0.145507 -0.512447 -0.570845 -0.112555 -0.513812 0.218526 -0.144805 0.140435 -0.215818 -0.158528 0.018160 -0.190867 -0.190565 -0.439383
and 0.046979 -0.510835 -0.246353 -0.482578 -0.098598 -0.259693 -0.069004 -0.554914 0.283537 0.069604 -0.285774 -0.393661 -0.428746 -0.481212 -0.090245 0.236444 -0.178234 -0.516368 -0.068829 0.021942 -0.271306 0.196680 -0.307737 -0.148230 0.041716 0.351543 -0.067069 -0.126420 -0.345297 0.145285 0.253989 0.177214 0.271283 -0.513472 -0.013037 -0.284571 -0.212811 0.142441 0.032758 -0.143458 -0.400264 -0.445467 -0.151581 -0.329701 -0.289267 0.263836 0.052717 -0.430971 0.272803 0.077035
the -0.046804 0.180788 -0.389442 -0.511001 -0.200260 0.109020 -0.067922 -0.245329 0.224879 -0.097645 -0.035044 -0.181865 -0.484971 -0.395379 -0.144129 0.023608 -0.287029 -0.204090 -0.433417 -0.221709 -0.383145 0.053007 0.175459 -0.201701 0.203286 0.087093 -0.284890 -0.322703 -0.038276 -0.154148 0.028700 0.161943 -0.187387 -0.407995 0.086921 -0.362753 0.102560 -0.371292 -0.111551 -0.220001 -0.136620 -0.319030 -0.110609 -0.355055 0.245171 0.024898 -0.294547 0.285695 -0.102829 0.171287
Sorcerers 0.321528 -0.029505 0.332401 -0.083888 0.472290 -0.298447 0.394142 0.529852 -0.287480 0.128416 0.495543 -0.184971 0.335799 -0.321219 0.561330 0.416556 -0.292456 0.584341 -0.134484 -0.168295 0.168236 -0.282399 0.404743 0.083379 0.286233 0.416141 0.597838 -0.143961 -0.211778 0.440941 -0.121791 -0.264157 -0.003081 0.457003 0.040596 -0.276367 0.369669 0.569451 -0.154865 0.592391 -0.378979 0.527743 0.040041 0.058330 0.302700 0.124665 0.217524 0.357974 -0.135584 -0.205959
Stone 0.225780 0.676201 0.410836 -0.031451 0.337116 0.355689 0.305150 0.495252 0.584406 0.430836 0.552851 0.389441 0.415494 0.227579 0.711468 0.202490 0.323621 0.334632 0.181168 0.063734 0.389324 0.537159 -0.240735 0.330703 0.148411 -0.088951 0.060255 0.439346 0.258090 0.074218 0.098247 0.751101 0.380170 -0.178822 0.572022 0.628906 0.688739 0.044718 0.661246 -0.098742 -0.121728 0.390133 0.674242 -0.020199 0.050950 0.326894 0.254422 0.634698 0.371153 0.565020
CHAPTER 0.356231 0.618010 0.644005 0.516852 0.493133 0.722863 0.301985 0.030777 0.627390 0.657628 0.040805 0.438112 0.049198 0.466481 -0.089522 0.527604 0.291852 0.131702 0.725437 0.096797 0.445821 0.295484 0.245971 0.336591 0.704674 0.603781 0.201032 0.795412 0.083120 0.583441 0.728696 0.551579 0.227018 0.062359 -0.000263 0.524959 0.308261 0.482872 -0.066571 0.369665 0.835027 0.523863 0.097265 0.442561 0.289605 0.574460 0.463240 0.576804 0.054678 0.680002
ONE -0.063501 0.777913 0.596546 0.360840 -0.038978 0.294229 0.474439 0.810298 0.156997 -0.023581 0.853537 0.701877 0.689225 0.624663 0.202736 0.528446 -0.102851 0.767477 -0.044108 0.667653 0.690374 0.177068 0.199474 0.728379 0.096358 0.483745 0.216048 0.759489 0.805906 0.723715 0.456506 0.043462 0.238216 0.621723 0.258683 0.544863 0.780675 0.536094 0.634177 0.601790 0.594601 0.002724 0.659946 0.658840 0.618329 0.808044 0.758390 0.012468 0.620981 0.202265
THE 0.370957 -0.184056 0.696812 -0.147830 0.639489 0.158259 -0.188033 -0.242461 0.171847 0.482264 0.670499 0.622111 0.256442 -0.020612 0.203740 0.551022 0.436219 0.751263 0.640046 0.297922 0.170069 0.052354 0.166378 0.732615 0.745269 0.233653 0.447922 -0.067473 0.589154 -0.125400 0.370501 0.766491 0.176304 -0.116077 0.134490 -0.145364 0.179744 0.256789 -0.264784 -0.134601 0.294641 0.722387 -0.101534 0.001710 0.648816 0.410973 0.390570 0.639248 0.294409 0.065961
BOY -0.115345 -0.328856 0.197659 0.541066 -0.017423 0.196781 0.227585 0.378688 -0.317828 -0.370720 -0.197961 -0.160173 0.419446 0.055146 -0.117824 0.225894 0.047193 -0.235197 -0.259476 0.474257 -0.049988 0.359414 0.498393 0.061688 0.508778 -0.176938 0.526039 0.258832 -0.006890 0.526315 0.521915 0.272767 -0.178251 -0.188794 -0.031428 0.204705 -0.144063 0.496347 0.007294 0.005412 -0.056015 0.435721 -0.034470 0.499291 0.266288 0.595810 0.568748 0.255783 0.557816 0.300616
WHO 0.096895 0.261972 0.184691 -0.129148 0.647340 0.578899 -0.282561 0.506979 -0.249729 -0.360222 0.347732 0.197500 0.287867 0.479961 -0.331365 0.653965 0.578420 -0.320326 0.576695 0.260340 0.519125 -0.277044 0.448182 0.173927 -0.226006 0.085122 0.635112 0.002705 -0.071018 -0.276581 0.547879 -0.019227 0.034967 0.321697 0.405930 0.050886 0.231793 0.269291 0.391403 -0.339012 0.132005 0.571467 -0.282693 0.380202 0.599496 0.435668 0.325306 0.155769 -0.090183 -0.294225
LIVED -0.022836 0.287952 0.388212 -0.051612 0.491874 0.486474 0.268046 0.482908 0.265676 0.282133 0.475663 0.371891 0.060869 0.519723 0.187223 0.600307 0.459770 0.206175 0.584826 0.071809 0.497595 -0.156672 -0.009235 0.697448 0.486352 0.557034 0.540154 0.471929 0.429779 0.549114 0.347002 -0.233683 0.465695 0.650828 0.622234 0.476258 0.126240 0.033754 0.351733 0.148806 0.424425 0.543021 -0.169862 0.070353 0.775204 0.000426 0.693479 0.212553 -0.145322 0.531769
Mr -0.094978 -0.586168 -0.182728 0.156498 -0.348020 -0.303051 0.285050 -0.605593 0.336258 0.275193 -0.082196 -0.535099 -0.244889 -0.471892 0.198780 0.208524 0.246845 -0.176046 -0.184568 -0.351510 0.435724 -0.724439 -0.496156 -0.261789 -0.441867 -0.564156 0.060485 -0.408942 -0.472503 0.327858 -0.364843 0.171399 -0.027320 -0.515027 -0.175260 -0.600158 0.118285 0.279311 -0.000976 0.314815 0.119049 0.064499 -0.424358 -0.353024 0.445541 -0.037954 0.341986 -0.086130 -0.277983 -0.259792
Mrs -0.351003 -0.548869 -0.583277 -0.109490 -0.079013 -0.031975 0.324313 0.229328 -0.139967 -0.381478 -0.452758 -0.565085 -0.000726 0.043214 0.115233 0.029342 0.147967 0.183902 -0.267626 0.186658 0.155574 -0.312529 -0.490116 -0.057156 -0.442832 -0.012400 -0.041931 -0.380954 0.355497 -0.006728 0.298162 -0.329191 0.054151 -0.010928 -0.379099 -0.560329 0.081774 -0.488839 -0.540489 -0.071708 -0.084976 -0.002266 -0.316498 0.272327 -0.286174 0.246809 -0.160970 0.295197 -0.536230 0.126435
Dursley 0.107536 0.161198 0.034720 -0.241384 -0.246683 0.142365 -0.130336 -0.871026 -0.396997 0.026011 0.204131 -0.199872 -0.305744 -0.169529 0.001100 -0.055519 -0.195659 0.040691 -0.502870 0.121645 0.171858 0.085829 -0.301518 -0.174149 0.202809 0.108131 0.046699 -0.657378 -0.033645 -0.600258 -0.077211 -0.330373 0.164196 0.210205 -0.416748 -0.289079 0.225320 -0.493337 -0.011959 -0.105343 0.313073 -0.046471 -0.138968 -0.393727 -0.552440 -0.133760 -0.038366 0.373915 -0.462750 -0.190738
of 0.062207 -0.161330 0.228004 -0.182480 -0.593568 -0.370540 -0.302996 -0.335670 0.173891 -0.139603 -0.337670 -0.324963 0.305476 0.022412 -0.294633 0.117774 0.290771 -0.146472 -0.481274 -0.321447 -0.158106 0.314666 -0.172549 -0.019805 0.233004 -0.470329 0.072502 -0.195656 -0.223985 -0.235891 -0.252719 -0.505315 -0.489017 0.100880 -0.016111 -0.133080 -0.374129 0.097434 -0.007215 -0.430212 0.038809 0.131737 -0.332966 -0.185222 -0.017208 0.026359 -0.373122 0.144520 0.075216 -0.125639
number -0.259162 -0.646991 -0.410897 -0.054648 0.137504 -0.010288 -0.181766 -0.368249 0.359198 -0.569481 -0.494327 -0.249639 -0.473139 0.017899 -0.402946 -0.458696 -0.188516 -0.262970 -0.327907 0.297801 0.118950 -0.695810 0.126072 -0.456622 0.002963 -0.660947 0.207577 0.090795 -0.311282 -0.074400 -0.001928 -0.575324 0.264204 0.158292 -0.478867 -0.131721 -0.057178 0.182230 -0.166012 -0.457087 -0.356217 -0.038860 0.141012 0.251355 0.106215 -0.602929 -0.367085 -0.155391 0.259024 -0.250744
four 0.133780 0.471868 0.105728 -0.428893 0.066828 -0.097214 0.289611 0.335219 0.401519 0.206259 0.326674 0.343634 0.320235 -0.322329 0.170052 0.270989 0.401050 0.169500 0.372954 -0.344571 0.092972 -0.105096 -0.090844 -0.453197 0.242556 -0.140115 0.304156 0.280282 -0.118279 -0.312143 -0.287323 0.312979 -0.287427 0.304966 0.164621 0.432743 -0.464134 0.350439 -0.028935 -0.071907 -0.203767 0.054304 -0.144511 -0.380201 -0.497060 -0.136424 -0.273198 0.045247 -0.012002 0.479190
Privet -0.375971 -0.330065 0.208066 -0.188561 -0.525137 -0.061032 -0.237977 -0.527557 0.330305 0.103701 0.318143 0.117028 -0.649440 -0.257042 -0.256150 -0.405233 -0.118269 -0.207670 -0.182669 -0.133819 0.216003 0.144366 0.072359 0.023894 0.289733 -0.522856 -0.291810 -0.037852 -0.477454 -0.417635 0.274274 -0.138395 -0.187901 -0.345646 -0.250512 -0.227343 -0.513856 0.261512 0.035428 -0.379753 0.219030 -0.336354 0.203909 -0.311988 -0.368957 0.371970 -0.091421 -0.618602 -0.182364 -0.062933
Drive 0.310936 -0.486455 -0.417030 -0.398847 0.274692 -0.606299 -0.609249 0.195957 -0.361086 -0.561114 0.071710 0.252693 0.240221 0.093196 0.251739 -0.180459 -0.188442 -0.218973 -0.275613 0.173183 -0.467877 0.318419 -0.294556 -0.187033 0.236416 0.341994 0.135336 -0.267211 -0.529615 -0.357703 0.411418 0.148042 -0.188507 -0.095694 -0.310456 -0.547021 0.001597 -0.554882 -0.634324 -0.362035 0.116107 -0.403153 -0.172388 0.282303 -0.159474 -0.167321 0.338390 -0.013642 -0.081761 -0.072208
were 0.063265 -0.130035 0.196989 0.056423 0.324531 0.181316 0.099943 -0.161403 -0.431410 0.147974 0.215358 -0.599468 0.196692 -0.143854 -0.463897 -0.467772 -0.472090 -0.130468 0.195228 -0.271702 0.366467 -0.505621 -0.094737 0.110157 0.308445 0.157536 0.231689 -0.162830 -0.360981 -0.323896 -0.341716 -0.265896 0.001266 -0.407680 -0.228849 0.338144 -0.374989 -0.414446 -0.356948 -0.163855 -0.494341 -0.289209 -0.517371 -0.601620 -0.142755 -0.198453 0.058493 0.149592 -0.006845 0.295667
proud 0.546738 -0.114774 -0.178440 -0.022968 0.365591 -0.254994 -0.016675 -0.013495 -0.411617 0.414305 0.081083 0.129995 0.040341 -0.366530 -0.273252 0.087219 -0.082027 0.173978 -0.361703 0.516406 0.330911 -0.074363 0.074631 0.462716 -0.418262 -0.086076 -0.487135 0.225005 -0.315981 -0.080101 0.019932 -0.352009 0.532370 -0.119539 0.099886 0.167241 -0.312704 0.163141 0.230510 -0.033738 -0.254574 0.054958 -0.473889 0.112514 -0.374939 0.231190 -0.077715 -0.209954 -0.155053 -0.074364
to 0.053833 -0.430246 0.238597 -0.574275 -0.053343 -0.509827 -0.065593 -0.506974 0.329026 -0.020185 -0.327558 -0.381497 -0.505287 -0.237075 -0.305837 0.213080 -0.285358 0.212380 -0.051940 -0.325057 0.200023 -0.290878 0.220744 -0.152203 -0.086815 -0.359436 -0.129009 -0.108612 -0.430153 0.120594 -0.003051 0.102527 -0.192624 -0.221356 -0.379144 -0.559826 0.366094 -0.444315 0.308531 -0.408265 -0.268722 0.095845 -0.204387 -0.465405 0.181024 0.059462 -0.221475 -0.215587 0.354463 0.187465
say -0.380435 -0.107215 0.092941 0.372436 -0.261246 -0.523822 0.012059 0.260884 0.258050 -0.200945 -0.459253 -0.486093 -0.286549 -0.257331 -0.592562 -0.285111 -0.538014 0.245536 -0.349403 -0.302223 0.377250 -0.488222 -0.101681 -0.146711 -0.526994 0.016183 -0.259792 0.069479 -0.215059 -0.289814 -0.410498 -0.073051 0.159543 -0.685490 -0.021056 0.029884 0.228689 -0.121437 0.255841 -0.440968 0.112229 -0.356527 -0.336580 0.184109 -0.178427 -0.347153 0.061782 0.290326 -0.554620 -0.628292
that 0.087979 -0.137319 0.075035 -0.357198 0.096343 0.358116 -0.007166 -0.586631 -0.458954 -0.420411 0.294208 -0.188210 0.240254 -0.271122 -0.291689 0.050990 -0.277298 0.194130 0.177951 0.320296 -0.665670 -0.216010 0.073049 0.197733 -0.433357 0.067055 0.157439 -0.503819 -0.329113 -0.381730 -0.270998 -0.225495 -0.460907 -0.292841 0.117987 -0.719784 -0.014724 0.081103 -0.087655 0.019432 0.220333 -0.391626 -0.339394 -0.112622 -0.127576 0.223292 0.175867 -0.412852 -0.533212 -0.436875
they -0.277718 -0.445639 -0.315986 -0.729453 -0.017442 0.090936 -0.453204 -0.693414 0.025771 -0.414585 0.355226 -0.018441 0.086755 0.188937 -0.158634 -0.658802 0.083122 -0.118237 -0.417737 0.207964 0.029542 -0.154083 -0.048113 0.288346 -0.151654 -0.281255 -0.316549 0.035351 0.046709 -0.434519 -0.299720 0.227964 -0.113151 0.005210 -0.725147 -0.202070 0.070567 -0.284377 0.239703 0.385609 -0.327576 -0.140398 0.164499 -0.475290 -0.316018 0.015713 0.210410 0.007955 0.161021 -0.606724
perfectly 0.031003 -0.053991 -0.106083 -0.563742 -0.025715 -0.616365 -0.252808 0.139291 -0.232203 0.313370 0.125503 -0.033893 0.411938 0.406081 -0.185733 -0.000910 -0.403594 0.214361 0.034447 0.314436 0.397214 0.396014 -0.022472 -0.078422 0.284056 -0.151441 0.141522 -0.107641 0.110675 -0.123412 -0.585208 0.297881 -0.499903 -0.342541 -0.176193 0.306023 0.320782 -0.298789 -0.216509 -0.404122 -0.212142 -0.481099 -0.582139 -0.410115 -0.219927 -0.556546 -0.015276 -0.088585 -0.106645 -0.344265
normal -0.358388 0.445550 0.265506 0.431973 -0.319901 -0.154705 -0.301501 -0.446026 0.325362 -0.541960 0.380513 -0.463555 -0.292401 0.029609 -0.376710 -0.165906 -0.230958 0.315883 0.248722 0.217197 -0.516806 -0.239143 -0.541679 -0.469783 -0.031199 -0.499748 0.267076 -0.347620 0.054002 0.174396 -0.366423 -0.525705 0.122740 0.334081 0.246294 -0.376180 0.411099 0.399560 0.181796 -0.343683 0.287116 0.050909 -0.507411 0.011517 0.344243 0.000868 -0.110022 -0.450385 -0.331849 -0.014005
thank 0.246870 -0.179301 -0.403817 0.307342 0.044556 0.271795 0.193232 -0.350754 -0.466404 0.040307 -0.435422 0.099927 0.112801 0.343384 -0.174423 0.156919 -0.326091 -0.202481 -0.192810 0.189029 -0.407916 -0.251538 0.057930 0.405028 -0.464194 0.380823 -0.302584 -0.282937 -0.373822 -0.131152 -0.460072 -0.410814 0.030104 -0.008655 0.081932 0.479836 0.013149 0.123653 -0.351907 0.315627 0.084388 0.466895 -0.180178 -0.035707 0.371293 0.083882 -0.111217 -0.215050 -0.434371 0.157807
you -0.085297 0.047323 0.066850 -0.418159 0.168308 -0.173860 -0.293148 0.281911 0.198802 0.011581 -0.544901 -0.278028 0.193180 -0.405179 -0.503293 0.237224 -0.401045 -0.213514 -0.163183 -0.032247 0.337109 -0.094563 -0.207053 0.179245 -0.420262 0.023291 -0.268361 0.006292 0.072343 -0.027593 -0.096111 -0.003285 0.191709 -0.503105 0.224936 -0.402137 -0.518569 -0.215618 -0.344921 -0.494339 0.041975 0.180356 -0.611563 -0.468019 0.075127 -0.387989 -0.143766 0.071323 0.010764 0.148046
very 0.038697 -0.312405 -0.618299 -0.147629 -0.145680 -0.479560 -0.098943 0.108625 0.310420 -0.470965 0.078044 -0.500034 0.015561 -0.151665 -0.384362 0.252704 0.172882 -0.477436 0.156523 0.277958 -0.093363 0.194986 -0.536630 -0.156682 -0.385960 0.078443 -0.332643 -0.192150 -0.183796 -0.347065 -0.529120 -0.107481 -0.056254 0.089953 -0.557782 0.004462 -0.256127 -0.405747 0.048320 -0.107763 0.433289 0.387376 -0.422479 -0.431279 -0.362570 0.032348 0.033448 -0.203760 0.420485 -0.135971
much -0.263249 -0.010523 -0.399801 -0.102696 0.274233 -0.127961 -0.547006 -0.152841 -0.397682 -0.400701 -0.429507 0.077740 0.068085 0.096410 -0.456349 -0.224589 -0.372244 -0.540487 -0.037743 -0.412767 -0.780162 0.072883 -0.294343 -0.333614 -0.061846 0.055653 -0.276782 -0.637012 -0.167792 -0.068460 -0.157475 -0.426304 0.072738 -0.460142 -0.448086 -0.494909 -0.131204 -0.592623 -0.495489 -0.187239 0.276368 0.051848 -0.365568 -0.018894 -0.582031 -0.203968 -0.135945 0.263483 -0.173940 0.048916
They 0.253603 -0.081625 -0.502800 -0.107817 -0.301288 -0.446532 0.032108 -0.173295 -0.532297 -0.015993 -0.492214 -0.369634 -0.663910 -0.466565 -0.592419 0.333483 -0.256307 -0.619737 0.066762 0.033051 -0.285678 0.145267 0.109203 0.176331 -0.666335 -0.111972 -0.436649 -0.494469 -0.115309 -0.633452 -0.432040 0.131971 -0.623766 -0.470284 0.017201 0.222056 -0.219018 0.252561 -0.115086 -0.204510 -0.533439 -0.481922 0.159488 -0.100538 0.097874 -0.069484 0.076332 -0.334251 -0.352087 -0.245122
last 0.119448 -0.116857 -0.334788 0.313408 0.208676 -0.433938 0.072728 0.108374 0.048214 -0.427928 -0.339690 -0.100179 0.445693 0.132198 -0.296712 0.364354 -0.483505 0.180933 0.101854 0.225381 0.294943 0.057462 -0.500368 -0.252819 -0.013726 -0.031695 -0.428704 0.108456 0.112724 -0.299377 -0.071893 0.428756 -0.333847 -0.395352 -0.188806 -0.141812 -0.300534 -0.473776 -0.462489 0.085698 -0.086706 0.173404 0.272548 -0.074169 0.329666 0.028779 -0.214160 0.369154 -0.245725 -0.294140
people -0.330378 -0.051206 0.259769 0.136993 -0.271001 -0.073303 -0.395168 -0.102843 -0.369116 -0.085846 0.096493 -0.527960 0.009432 -0.083559 -0.193772 -0.268651 -0.504331 -0.070781 -0.641595 0.323514 -0.538004 0.021705 -0.291432 -0.223063 -0.248618 0.205211 0.152043 0.152569 -0.552116 -0.088259 0.239374 -0.493978 -0.056886 0.361507 0.064921 0.222097 0.206692 -0.373115 -0.163120 -0.384069 0.248157 -0.297029 0.110588 0.150798 -0.473348 -0.372636 -0.301267 0.189254 -0.197409 -0.051795
youd 0.340514 -0.294245 0.315332 0.036574 0.280332 -0.456351 0.098068 -0.110148 -0.149374 -0.474089 0.374830 -0.050837 -0.372238 0.099948 0.125835 -0.372019 0.176400 -0.184994 0.543389 0.278448 0.167521 -0.283506 -0.280988 -0.103756 0.190190 0.178830 0.202943 -0.496287 -0.171893 0.442257 -0.232789 0.294305 0.185105 -0.236157 -0.037755 -0.074195 0.363766 -0.128341 0.149718 0.354842 -0.442663 -0.336018 -0.262523 -0.397863 -0.029222 0.237492 -0.101510 0.208502 -0.007021 0.198203
expect 0.471916 0.414539 -0.266703 0.367670 0.073487 -0.190151 0.465026 0.026217 0.186161 0.163030 -0.204432 0.325985 0.170060 0.441919 -0.279929 -0.264371 0.177846 -0.424649 0.132796 -0.034328 -0.366631 0.181389 0.362622 0.182644 -0.149573 -0.316725 0.261426 0.382202 0.226515 0.169989 -0.432309 -0.387419 -0.038169 -0.081226 0.081126 -0.298754 0.455126 -0.195130 0.243668 0.037585 0.154046 0.384843 0.293106 -0.538209 0.445294 -0.025494 0.081134 0.208699 0.488608 -0.299661
be -0.340333 0.076697 0.060413 0.125996 0.001134 -0.692134 -0.605503 -0.425094 0.179547 -0.100365 -0.591975 -0.093256 -0.448734 0.084021 0.284582 -0.023886 -0.028727 -0.428024 -0.642723 -0.326487 -0.150805 -0.064059 0.117967 0.279263 -0.376093 -0.330169 -0.317609 0.029472 0.207179 -0.591467 -0.383940 -0.208623 -0.344615 -0.335909 -0.562115 -0.509275 -0.282430 -0.200336 0.056712 0.039186 0.013865 -0.229667 0.111774 -0.613199 -0.321019 0.297698 -0.016529 -0.191329 0.069307 -0.329126
involved -0.209011 0.002129 0.473829 -0.319153 -0.222294 0.217486 0.248914 -0.452846 0.160110 -0.452093 -0.263833 -0.136805 -0.446040 -0.330082 -0.138044 -0.159202 -0.291029 -0.001825 -0.206395 0.395433 0.457401 0.373649 0.522261 -0.137857 0.413061 0.254994 0.135633 -0.296497 0.010886 -0.346187 0.391750 0.134880 0.063015 0.444875 -0.291568 0.460581 0.075310 -0.059722 -0.178909 0.408317 -0.376665 -0.467888 0.475050 -0.481709 0.255304 -0.305573 -0.324615 0.358826 -0.182000 0.122667
in 0.258177 -0.235653 -0.128908 0.309720 0.243208 -0.202753 -0.383963 -0.120174 -0.095155 0.276871 0.031578 -0.131744 -0.327917 -0.250295 -0.374982 -0.303717 -0.419453 0.066100 -0.289187 -0.249597 0.157062 -0.223230 -0.508430 0.109593 0.176494 -0.031664 0.021096 -0.200825 -0.390386 -0.219249 -0.275112 -0.053227 -0.046996 -0.289054 0.028947 0.016502 -0.517315 0.202036 -0.090345 0.196327 -0.202711 0.023823 -0.203269 -0.668997 0.140647 -0.512133 -0.165773 0.140330 -0.402123 0.036704
anything -0.035217 -0.008925 -0.320267 0.020442 0.393176 -0.326356 0.133946 -0.000080 0.312929 0.406887 0.421907 0.468750 -0.441107 0.566575 -0.220749 0.234390 0.424207 0.202333 0.018792 -0.419151 -0.028845 -0.372997 -0.206733 0.121204 0.161885 -0.195931 -0.100275 0.096483 -0.413141 0.031894 -0.174261 0.235278 -0.315499 0.026660 0.529892 -0.076631 -0.171132 0.090788 0.414867 0.514773 0.068412 0.410005 0.002028 0.390896 -0.194563 0.246787 -0.341599 0.311739 -0.285555 -0.441449
strange -0.520473 -0.522611 -0.264529 -0.248209 -0.665834 -0.331887 -0.665890 -0.163623 -0.217122 -0.004152 -0.239541 0.113834 0.174568 0.279092 0.287076 -0.352739 -0.046736 -0.172941 0.156081 0.083914 -0.590081 0.086647 0.293077 0.276438 -0.460689 0.123165 0.168368 -0.503886 -0.033998 -0.281820 -0.256618 -0.542463 -0.128374 -0.442224 0.264044 0.237164 0.262863 -0.350537 -0.572498 -0.251290 -0.508854 0.048296 -0.558510 -0.546949 -0.488391 0.336172 -0.164482 0.023825 -0.191075 0.259462
or 0.340036 0.226430 -0.193761 -0.096241 0.025245 0.057533 -0.423627 -0.406950 -0.119551 -0.097773 -0.335315 0.192047 -0.352949 0.132851 0.255936 -0.038908 -0.031538 0.273522 0.340615 -0.010788 0.190927 -0.317640 0.208713 -0.281335 0.008586 -0.558291 -0.307792 0.403845 -0.381274 -0.124121 0.128880 -0.286132 -0.173322 -0.026358 -0.503997 -0.180331 0.354702 -0.380911 -0.552911 -0.284494 -0.381415 0.208198 -0.246579 -0.383183 -0.490739 -0.356950 -0.197543 -0.249122 -0.575738 0.193386
mysterious 0.335167 -0.294057 -0.296730 -0.078039 -0.159213 -0.139207 -0.513458 0.360623 0.024545 0.134614 -0.049611 -0.062896 -0.257147 -0.423087 -0.315111 0.310112 -0.213967 0.403667 -0.393371 0.008992 -0.113584 0.218609 0.053776 -0.211067 -0.146541 -0.306067 -0.430195 -0.284674 -0.064828 0.240477 0.016602 0.478947 -0.280274 -0.480044 -0.625520 -0.597149 -0.130904 0.161329 0.027473 -0.528182 0.031095 -0.365395 -0.209780 0.022642 -0.504795 0.424550 -0.067053 -0.370910 0.317729 -0.299720
because -0.017151 -0.081406 0.057544 0.204246 0.309536 0.260480 -0.382386 -0.264276 -0.283584 0.105217 -0.145355 0.328510 -0.043837 -0.016057 0.334049 0.194606 -0.071250 -0.626194 -0.542635 -0.633617 -0.408931 -0.098492 -0.049455 -0.347884 -0.400576 0.280817 0.234297 -0.417508 -0.602111 0.234446 -0.363812 -0.700969 -0.526507 0.269763 0.007836 -0.522160 -0.040891 -0.375707 -0.389911 -0.371050 -0.374551 -0.309731 -0.484383 -0.587016 -0.359601 -0.237623 -0.593830 -0.333248 0.163485 -0.410038
just 0.385746 0.312475 -0.415930 -0.357209 -0.464001 0.353054 -0.400563 -0.343858 -0.077601 -0.334247 0.132913 -0.212922 -0.187436 0.238826 -0.205585 -0.017195 0.405203 -0.210453 -0.105397 0.004082 0.461317 -0.474847 0.123511 0.437575 0.158481 -0.272678 -0.142783 0.204236 0.126861 0.286555 0.140312 -0.050638 -0.028951 0.129706 -0.493929 -0.060665 -0.232568 -0.026586 0.030617 -0.158583 -0.096659 0.223609 -0.349925 -0.141448 0.063156 0.193974 -0.414088 -0.131239 0.411233 0.141491
didnt 0.304020 -0.261590 0.216046 -0.406584 -0.239877 -0.541381 -0.481690 -0.384600 0.308163 -0.304638 -0.029552 0.238338 -0.576500 0.244357 -0.563029 -0.534701 -0.541288 0.394646 -0.276707 -0.152332 -0.395587 -0.164851 0.027330 0.089222 -0.158925 -0.562675 -0.205887 0.208809 -0.429295 0.044512 0.356371 -0.063710 -0.648876 0.160031 -0.426710 -0.072852 -0.445512 -0.300062 0.024150 0.316083 0.024057 0.057202 -0.277817 0.094020 -0.356127 -0.339747 0.287349 0.241467 0.027905 -0.528562
hold 0.377703 -0.375675 -0.239003 -0.051707 -0.392220 -0.331894 0.260139 -0.120386 0.036584 0.158556 -0.171190 0.440402 0.230194 0.093324 0.042800 0.401946 -0.067095 -0.023772 0.155426 0.355236 -0.070473 0.175362 0.034877 0.301368 0.262606 0.038402 -0.441893 0.254556 -0.360393 0.053167 -0.336030 0.385110 -0.336054 -0.414847 -0.237183 -0.316997 0.323303 0.400138 0.523454 0.182391 0.328778 0.440762 0.054504 -0.119683 -0.353510 0.059972 0.186905 0.010169 0.581471 0.177478
with -0.002420 0.081105 -0.068559 -0.027504 -0.388467 -0.595053 -0.389249 -0.440619 -0.264084 -0.074511 -0.199779 -0.539068 0.067103 0.227670 -0.408558 0.209900 0.049173 -0.443065 0.035125 0.304694 0.131601 0.061835 -0.523594 -0.061756 -0.495474 -0.418340 -0.182890 0.236226 0.038353 0.184797 0.221636 -0.493289 0.273013 -0.373677 -0.377793 -0.058897 0.310123 -0.548170 0.106194 -0.305531 -0.061538 -0.527451 -0.655784 -0.147723 -0.331106 -0.425012 -0.068373 -0.014010 0.405489 -0.277839
such -0.290114 -0.136457 0.458944 0.562142 0.353961 -0.305474 0.256396 -0.223076 -0.226310 -0.271950 0.182219 0.470220 -0.047619 0.005616 0.254115 0.497824 -0.114453 0.350558 0.060347 0.451895 -0.016461 0.448658 0.572009 0.199525 -0.232835 0.391457 0.429775 0.431325 0.098289 -0.255704 0.273768 -0.066493 0.217107 0.103453 0.275320 -0.127188 0.566839 -0.094176 -0.459067 0.493334 0.340489 0.436840 0.262360 0.101887 0.563200 0.063968 0.476605 0.635937 -0.112875 0.400287
nonsense 0.073518 -0.218445 0.419874 0.051902 0.412969 -0.097402 0.374778 -0.015525 0.428606 0.064240 -0.085614 -0.003336 0.472505 0.807465 0.556522 0.727458 0.550066 -0.205009 0.001355 0.470324 0.261462 -0.210071 -0.227461 0.501198 0.636701 0.498507 -0.089591 0.696972 0.347546 -0.130961 0.367165 0.374989 0.578896 0.655804 -0.232628 0.062678 0.212873 0.533167 0.264155 -0.151716 0.104672 0.279033 -0.154190 -0.089100 -0.157606 -0.037859 0.033030 0.227817 0.547330 -0.196010
was -0.003280 -0.431118 -0.045558 -0.335079 -0.554291 -0.012063 -0.387080 -0.289970 0.115295 0.161960 -0.259683 0.210409 -0.580954 -0.278108 -0.143631 0.355100 -0.434534 -0.316609 0.139541 0.461064 -0.103191 -0.260327 -0.428101 -0.195874 0.348552 -0.187816 0.332959 -0.375939 -0.180390 -0.032796 -0.187753 -0.543421 -0.218168 -0.091499 0.115543 -0.400299 0.216547 0.152921 -0.377856 -0.054644 -0.373086 -0.077433 -0.222574 -0.528083 -0.445440 -0.315303 0.370934 0.107404 0.320347 -0.425869
director 0.238614 0.482408 0.504365 0.406510 0.339891 -0.421835 0.300827 0.418166 0.124846 0.001978 -0.083271 -0.351632 -0.038517 0.424099 -0.295013 -0.066940 0.237733 0.458172 -0.065504 -0.110649 0.311145 0.565339 0.049238 -0.355727 0.434564 0.544096 -0.317561 -0.405469 0.003019 -0.407261 -0.331995 -0.012726 0.420214 0.430453 0.488638 0.297096 -0.185202 0.368047 -0.078621 -0.409289 -0.395134 0.366822 0.324224 0.344192 0.291542 0.304029 0.397452 0.302476 -0.020803 -0.333853
a 0.446667 -0.528343 0.366852 -0.390500 0.237668 -0.220518 -0.339111 -0.030947 -0.180971 -0.195072 -0.346421 -0.084087 -0.080511 0.315944 -0.316693 -0.482111 -0.275937 -0.207680 -0.369434 -0.169817 -0.194933 -0.260926 -0.332417 0.019307 -0.208137 -0.438317 -0.114669 0.169873 -0.267984 0.234837 0.227298 -0.289125 -0.119692 0.041392 -0.673499 0.106780 0.167795 0.238046 0.132540 -0.467337 -0.365952 -0.221888 -0.228428 -0.182563 -0.079253 0.340931 0.228456 -0.300420 0.068117 -0.376289
firm 0.362660 0.036480 -0.004458 0.321871 0.104218 0.334920 -0.236121 0.496763 -0.207980 -0.429138 0.238628 0.399019 -0.369381 0.495313 -0.314189 0.441903 -0.020036 0.113031 -0.518419 0.322875 0.291865 0.095737 -0.173818 0.215431 0.339104 0.370255 -0.215800 -0.067290 0.106766 -0.312107 0.336043 -0.027476 0.359193 -0.188211 0.180075 0.546960 0.295296 -0.267341 0.361374 0.088641 0.314688 -0.202884 0.199925 -0.040167 -0.248335 0.460087 -0.195688 0.481669 0.265677 0.250841
called 0.345826 0.031616 -0.333158 -0.640914 -0.042087 -0.529706 -0.032850 -0.603701 -0.466306 -0.316106 -0.608631 0.313242 -0.546947 -0.538158 -0.529945 0.086081 -0.335270 -0.045714 -0.139305 0.178690 -0.490669 0.074498 -0.223931 -0.072158 0.046163 -0.485171 -0.399572 -0.568939 -0.275905 0.128016 0.232722 0.010660 -0.517420 -0.502598 -0.295969 -0.074957 -0.408250 -0.092723 -0.560091 -0.089574 -0.166016 0.161473 0.056269 0.169883 -0.573912 -0.180527 0.294684 0.330800 -0.517366 -0.052073
Grunnings 0.237971 0.301538 -0.163568 -0.317445 0.476664 -0.015571 0.261499 0.343378 0.005693 -0.359974 0.212075 0.253563 0.358888 -0.413177 -0.441828 -0.474288 -0.252499 -0.353358 -0.481891 -0.067296 -0.314971 -0.191167 0.228525 0.265142 0.037976 -0.121118 -0.473334 0.266517 -0.254270 -0.134610 -0.406954 0.422440 -0.214138 -0.262830 0.388865 -0.415378 -0.307888 -0.361773 -0.039473 -0.033079 -0.284348 0.089813 -0.368422 -0.366147 -0.446330 0.535420 -0.053416 -0.193811 0.065309 -0.349844
which -0.148625 -0.613894 -0.314946 -0.601951 -0.786420 0.092682 -0.346754 -0.688654 -0.081842 -0.676578 -0.614420 -0.589877 -0.448761 -0.042730 -0.031069 -0.213229 0.133814 -0.000214 -0.368840 -0.100861 0.044691 0.064746 -0.650988 -0.013437 -0.770679 0.130558 0.008640 -0.613806 -0.655315 -0.239214 0.042539 -0.064976 -0.419474 -0.582840 -0.166986 -0.726267 -0.596022 0.075236 -0.110279 -0.374118 0.014808 -0.280623 -0.049346 -0.486065 -0.125980 -0.157290 -0.305359 -0.738466 -0.044796 -0.254484
made 0.366217 -0.082877 -0.065733 0.073031 -0.264530 0.026394 0.018335 -0.123192 0.261832 -0.108190 0.161779 0.314488 -0.528517 -0.298423 -0.256459 -0.346301 -0.263863 0.341236 0.158902 -0.449261 -0.581164 0.094621 0.012490 0.353412 0.023033 -0.288899 -0.326963 -0.374827 -0.163573 -0.041573 0.336520 0.084340 -0.155160 -0.325598 -0.152019 0.170960 -0.323559 0.200617 0.278658 -0.556930 0.113744 0.293646 -0.217019 -0.012215 0.016882 -0.313382 -0.386485 0.085187 -0.390718 0.284652
drills 0.308825 -0.435532 0.252449 0.306948 -0.553970 -0.102597 -0.332806 0.141182 -0.350112 -0.447570 -0.212686 0.148555 -0.126835 0.205484 0.256206 -0.490491 -0.077213 -0.504913 0.281131 -0.411954 0.238080 0.157026 -0.262379 0.025380 0.009777 0.316237 -0.050257 -0.286072 -0.408976 -0.143795 -0.256253 -0.298253 -0.038063 -0.336815 -0.094269 -0.367409 -0.483317 -0.163527 -0.236808 -0.216012 0.225655 0.020302 0.189276 -0.505492 -0.432263 -0.230033 -0.426257 0.056377 -0.145656 -0.368696
He -0.221342 -0.074095 0.127169 -0.279869 0.104429 -0.251001 0.305965 0.088341 -0.571485 -0.416169 -0.145099 -0.128068 0.029408 -0.488596 -0.047096 -0.195637 0.384668 -0.193420 0.000195 -0.105736 -0.372823 -0.167350 -0.414507 0.275142 -0.190251 -0.282880 0.145878 -0.257511 0.105705 -0.131194 0.302875 -0.409513 0.287725 -0.596228 0.065398 -0.059101 -0.264868 -0.509410 0.319215 -0.446234 0.142000 -0.261831 -0.200993 -0.208970 0.139608 -0.559970 -0.472841 0.135633 -0.637768 0.132876
big 0.077687 0.075668 0.224910 -0.289777 0.412880 -0.158959 -0.139163 0.303902 0.426456 -0.165590 0.107798 0.552754 -0.451780 -0.234185 0.032774 -0.234727 -0.115708 -0.394461 0.309155 0.161327 -0.195421 0.460932 0.254676 0.476298 0.162517 -0.261120 0.454253 0.481829 0.106406 -0.158125 -0.351175 -0.210316 -0.266626 -0.376476 0.035352 -0.185212 -0.152229 0.142510 -0.045653 0.517994 -0.068553 0.149472 0.510196 0.255636 -0.199310 -0.078032 0.388055 0.129915 -0.285999 0.309124
beefy -0.001759 -0.068195 -0.255279 0.004704 -0.297446 0.251224 0.449954 0.059065 -0.018887 0.047229 0.379877 -0.190210 0.367799 -0.094451 0.059813 0.312193 -0.288409 0.433080 0.076034 0.223792 -0.092711 0.381976 -0.393666 0.198476 -0.157434 0.131681 -0.142937 -0.419162 0.509240 0.255795 -0.298433 -0.305672 -0.213281 0.221590 -0.416765 0.053527 0.098617 -0.046130 -0.136505 0.347688 -0.366129 -0.571275 -0.172375 0.304561 -0.340439 0.271515 -0.355201 0.260195 -0.316225 -0.340658
man 0.301990 0.020016 -0.407796 -0.297592 -0.434787 -0.049464 -0.518985 0.288934 0.278431 -0.579763 -0.393170 -0.081707 -0.476576 -0.198845 -0.090498 0.093779 -0.320608 -0.419341 -0.244261 -0.495903 -0.621138 0.316696 0.372659 0.411857 0.106209 -0.380402 0.319936 -0.449494 -0.242571 -0.001899 0.168553 -0.268532 -0.402936 -0.304087 0.078376 -0.448707 -0.113517 -0.004867 0.373682 -0.198982 0.159165 0.222569 0.185805 -0.435490 0.090643 0.419099 -0.074161 -0.246594 0.099418 -0.093671
hardly 0.283743 -0.079963 -0.081190 0.016919 0.021283 -0.128915 0.092949 0.520077 -0.360681 0.117639 0.204768 -0.205785 -0.341176 -0.006623 -0.411631 -0.179305 -0.147289 -0.073602 0.064880 0.432281 -0.167556 -0.130543 0.493181 0.473254 0.148498 0.144860 -0.458624 -0.228009 0.249235 -0.172251 0.546270 -0.155788 0.394805 0.490803 0.248782 -0.257938 -0.131710 -0.147055 0.261444 -0.472156 -0.271313 -0.119822 0.206929 -0.141007 -0.250893 -0.139598 0.037931 0.406443 0.277197 -0.281441
any 0.087609 -0.393990 -0.210259 0.335182 0.301552 -0.170877 -0.085372 0.189542 0.025286 -0.420602 -0.082223 0.229624 -0.014565 -0.429827 0.248383 0.294125 0.278578 0.087330 0.401833 -0.134220 -0.072434 0.153084 -0.382923 -0.058345 0.173885 -0.018196 -0.367780 0.334999 -0.201933 -0.146507 0.303049 0.132319 0.187314 0.022107 -0.268555 0.375418 -0.247845 -0.132462 -0.245271 0.372946 -0.175100 -0.185144 0.486271 0.094679 -0.029291 0.006946 -0.396300 -0.399176 -0.043531 -0.318343
neck -0.029349 -0.111014 0.089004 -0.002184 -0.029035 -0.634630 -0.794696 -0.550131 -0.201626 -0.517742 0.072505 -0.393893 -0.574907 0.235963 0.005398 -0.428754 -0.670093 -0.264970 -0.404122 0.222347 -0.485750 -0.160239 0.125746 -0.607973 -0.616928 0.204061 -0.489319 -0.744711 -0.735242 -0.332494 -0.203251 -0.408522 -0.457321 -0.197223 -0.233833 -0.130667 -0.662859 0.083396 -0.276741 0.162945 0.010721 -0.519822 -0.262367 -0.553354 -0.543380 -0.666157 0.079981 -0.255783 -0.471720 0.099177
although 0.079614 -0.140594 -0.387287 -0.141048 0.108135 -0.059050 -0.101693 0.300665 0.247097 0.295682 0.136612 -0.072399 0.100930 -0.027091 -0.399207 -0.249712 0.015436 0.034345 -0.065778 0.303086 -0.251412 0.227489 -0.144385 0.254761 -0.078137 0.100070 -0.352351 -0.308874 0.462428 -0.331341 -0.175366 0.333109 -0.258710 -0.394711 -0.093846 0.125309 -0.227020 -0.135298 0.305146 -0.083980 -0.187021 0.431717 0.336115 0.008179 0.540060 -0.402739 0.157086 -0.238382 0.455317 0.096876
he 0.133312 -0.521052 -0.477570 -0.705507 0.329734 0.238970 0.323182 -0.619892 -0.239880 -0.139391 0.126301 -0.064645 -0.669750 -0.355742 -0.526387 0.113080 -0.413704 0.044281 -0.067270 -0.306729 0.231814 -0.486365 -0.602884 0.032564 0.178531 -0.380302 -0.025032 0.047704 -0.621385 -0.204348 0.021803 0.261503 0.251270 0.305163 0.220907 -0.426107 -0.454046 0.154058 0.305391 0.215007 0.092913 0.122765 0.075921 -0.110655 -0.511481 -0.391659 -0.491268 -0.415568 -0.036224 -0.178614
did -0.029154 0.235483 -0.565392 0.354237 0.120284 0.118329 0.361506 0.263763 -0.562374 0.261015 0.282252 0.102388 -0.094013 0.321486 0.342437 -0.072191 -0.241493 -0.148456 -0.414536 0.371723 -0.359202 -0.202311 0.194895 0.079464 -0.090353 -0.443644 0.094237 -0.028471 -0.045390 0.068552 0.312049 -0.294211 -0.250175 -0.334668 -0.281288 0.331110 -0.604758 -0.416220 0.160707 0.193511 0.278068 -0.597962 -0.351396 0.066318 -0.503949 -0.224492 0.324741 -0.222407 -0.159963 -0.069239
have -0.650530 -0.404039 -0.510853 -0.566980 -0.275361 -0.300642 0.029653 -0.003471 -0.130687 -0.191015 0.101025 0.130555 -0.311628 -0.516487 -0.137488 -0.566457 -0.017154 0.258662 -0.495895 -0.589229 0.224714 0.167122 -0.374777 0.041963 -0.682546 -0.512694 -0.214256 -0.240645 -0.278545 0.163278 -0.507194 0.062394 0.076806 -0.282354 -0.547220 -0.193075 0.160845 -0.052995 -0.676770 0.132357 0.147252 -0.304175 -0.469843 -0.586848 0.155719 0.123025 -0.265093 -0.003629 -0.333378 -0.115277
large -0.221954 -0.363395 -0.408706 0.242024 -0.070064 -0.521419 0.103111 -0.149610 -0.090023 -0.569509 0.259581 -0.307998 -0.057903 -0.545142 0.217486 -0.480791 -0.195122 0.169408 -0.436137 -0.475321 0.125480 -0.562125 -0.537737 -0.711362 0.018186 -0.139978 -0.600142 -0.244189 -0.557840 -0.456016 0.228084 0.044316 0.062392 0.138340 0.005449 -0.077387 0.113166 0.056411 0.202075 -0.220810 -0.207515 -0.305922 -0.176061 -0.077288 -0.377828 0.281413 0.085629 0.116006 -0.724354 -0.267936
mustache 0.258199 0.182946 0.057411 0.107971 -0.213579 0.023042 -0.101506 -0.444985 -0.206456 -0.295833 0.020493 -0.447463 -0.120755 -0.153558 -0.025469 -0.319765 -0.057901 0.081517 -0.388394 0.098984 0.111993 -0.318903 -0.097890 0.309717 0.503002 0.442780 -0.186718 -0.049132 0.347630 0.106019 0.247871 0.187763 -0.054912 0.397471 -0.068699 -0.402501 0.224907 0.108409 0.139512 0.270604 -0.139846 -0.312071 0.248066 -0.326411 -0.235366 -0.294592 0.044633 -0.178814 -0.041054 0.430629
thin -0.266202 0.361022 -0.295536 0.030024 -0.288835 -0.312186 -0.093033 -0.230622 0.168525 -0.469934 -0.307600 -0.439559 -0.162958 0.302225 0.145310 0.227617 0.257648 0.230997 -0.010978 0.132171 -0.256712 -0.269238 -0.076062 0.070301 0.049006 0.179894 0.043516 -0.359251 -0.346859 -0.304997 0.310028 -0.087683 -0.284818 0.111956 0.204819 -0.342455 -0.394670 0.304568 0.136478 -0.123298 0.422857 0.499850 0.200614 -0.444948 -0.116186 -0.358092 0.306957 -0.304618 -0.028643 -0.088184
blonde 0.486119 0.279181 0.197073 0.319564 0.233834 -0.212446 0.183922 -0.143113 0.223847 0.366848 -0.159670 0.245150 0.147414 0.057553 0.057526 0.118986 -0.158326 -0.047764 0.413917 0.031701 -0.169097 0.197585 0.374048 0.075456 0.560380 0.278830 0.246610 0.225440 0.034132 0.080197 -0.022851 0.475954 -0.030345 0.338795 0.070377 0.511115 0.083612 -0.040579 -0.113444 -0.377428 0.170317 -0.062392 -0.086999 -0.283542 -0.101090 -0.445476 -0.438640 0.025785 0.189744 0.555543
had 0.268229 -0.120759 0.206613 0.147640 0.215741 -0.358374 0.369587 -0.442235 -0.223284 -0.622622 -0.374136 -0.180199 -0.581657 -0.373766 -0.021737 0.040207 -0.557626 0.168815 -0.177423 -0.143876 -0.015010 0.333363 -0.341378 -0.213956 -0.351255 -0.298479 -0.274748 -0.082780 0.010018 -0.291782 -0.102444 -0.333825 0.217268 0.242777 -0.284598 -0.112295 -0.034915 -0.429965 -0.129058 -0.284995 0.172995 -0.496296 -0.400068 0.022074 -0.373671 0.186297 -0.317563 -0.076238 -0.230204 0.350574
nearly 0.069786 0.312061 -0.008089 0.213969 -0.491483 0.421013 0.269484 -0.171775 0.205036 -0.413007 0.330025 -0.015815 0.345673 0.316335 0.034391 0.213857 0.352008 -0.232305 0.522162 0.288942 0.484414 0.301381 -0.149844 0.496262 -0.426942 -0.325433 0.512983 -0.026105 0.365625 0.175621 0.191254 -0.325821 -0.101883 0.151664 0.409109 -0.195231 -0.209511 0.252370 -0.274515 -0.400665 -0.219821 0.029639 -0.238025 -0.014297 0.225596 -0.024383 0.258669 -0.253831 -0.206943 -0.305080
twice -0.207030 -0.363589 -0.123602 0.440465 -0.302513 0.197689 0.180767 -0.222333 -0.180283 -0.047249 -0.483009 0.228532 -0.288193 0.311147 -0.338863 -0.427558 -0.135679 -0.098788 0.231915 -0.096943 -0.067572 0.398464 -0.478869 0.543542 0.125392 -0.239867 -0.259114 0.383915 0.506515 0.149488 -0.147933 -0.413576 -0.202466 0.494791 0.400484 0.149483 -0.277555 -0.186164 -0.344486 0.179099 -0.479637 0.151443 0.114795 -0.379432 0.528455 0.235153 -0.280705 0.078219 0.470266 0.240496
usual 0.160640 -0.007571 0.069627 -0.409875 -0.056540 -0.296206 -0.521807 0.259389 0.218663 -0.338559 0.311170 -0.533236 0.341729 -0.342951 0.283448 -0.461518 0.136403 0.365556 0.163304 -0.341271 -0.459683 -0.554619 0.287731 -0.509848 -0.229876 -0.413832 -0.200355 -0.334711 0.003635 0.047727 0.076594 0.203394 -0.092565 -0.525100 0.360293 0.013436 -0.317804 -0.227787 -0.301458 -0.533025 -0.160657 0.226719 -0.139203 -0.600986 0.216688 0.190652 -0.246677 -0.235862 -0.001674 -0.431045
amount 0.170939 -0.147015 0.152065 0.546566 0.596430 0.589697 0.170595 -0.188572 -0.316471 -0.383088 -0.184177 -0.416304 0.363615 0.015207 0.020598 0.382101 0.061367 0.064645 0.000263 -0.120417 -0.296146 -0.271625 0.344562 -0.075772 0.480814 0.082133 0.127561 0.135762 -0.365260 -0.301986 -0.100876 -0.015674 0.517337 -0.403046 0.077483 -0.212732 0.446366 0.403567 0.525306 0.107851 0.019877 0.334670 0.204295 0.231733 -0.209063 0.278615 0.223960 -0.026430 -0.433461 -0.052695
came 0.320374 0.445774 0.250283 0.297432 -0.265955 -0.186407 -0.010588 0.207320 0.263615 -0.301693 -0.206373 0.082930 0.314467 0.571496 -0.329569 -0.174074 -0.334031 -0.067552 0.660285 0.298083 0.467199 -0.388811 -0.391194 -0.297073 0.164076 -0.409318 0.286063 0.315339 -0.273541 -0.087540 0.192062 -0.010491 0.277115 0.479613 -0.312332 0.056627 -0.206187 -0.166859 -0.000036 -0.456272 0.172159 -0.162069 0.310088 0.056922 0.129573 0.392973 0.119531 -0.128540 0.426966 0.526746
useful -0.354424 0.423861 0.070679 -0.063351 -0.397567 -0.364110 0.473394 -0.139707 -0.241132 0.372944 -0.228822 0.339995 0.519371 -0.227933 0.280007 0.460046 0.429631 -0.007063 0.536939 0.511783 0.463311 0.454366 -0.388606 -0.260280 -0.244326 0.168881 -0.338005 -0.343358 0.106020 0.077074 -0.034666 0.589649 -0.347291 -0.262375 0.263022 0.375066 0.111191 -0.451088 0.186035 -0.181306 0.386909 0.030879 0.094653 -0.219368 0.001926 0.049235 -0.207628 0.029684 -0.081448 0.352296
as -0.450055 -0.009063 0.112300 -0.330159 0.003047 -0.055125 0.286605 -0.263414 -0.281424 -0.359567 -0.386583 -0.130996 -0.358563 0.319271 0.170271 -0.050345 0.108705 0.245302 -0.161463 -0.325133 -0.519748 -0.159595 0.031600 0.303487 -0.336903 -0.498248 -0.257822 -0.048419 -0.377222 0.243717 -0.470619 0.020277 -0.163746 -0.117118 -0.110983 -0.383747 -0.374428 -0.118426 0.142384 0.032701 -0.315758 -0.453108 -0.173065 -0.121028 0.077543 0.068715 -0.241510 -0.308287 -0.364451 -0.429978
she -0.167627 -0.474960 0.219505 -0.367717 -0.140335 0.074999 -0.433553 -0.161620 0.042705 -0.154093 -0.256238 -0.342082 -0.408899 -0.381855 -0.508310 -0.111259 -0.163411 -0.647960 -0.293441 0.045413 -0.341674 -0.433298 -0.369671 0.379139 0.299549 -0.248385 -0.580817 -0.310853 0.021335 -0.053287 0.087861 -0.585365 -0.180219 -0.090566 -0.473369 -0.467502 0.400957 -0.185762 0.208975 -0.368552 -0.645524 -0.045059 -0.247282 0.160322 0.204989 -0.482182 0.190596 -0.371795 0.314255 0.327790
spent 0.115581 0.487984 0.583535 -0.073711 0.125482 -0.151006 0.443253 0.466777 -0.090643 0.284211 -0.360945 0.025404 -0.335059 0.322143 -0.106892 0.469287 0.335515 0.062984 -0.071426 0.005993 0.100908 0.538543 -0.113248 0.465397 0.433500 0.416736 0.344167 -0.309598 0.291581 0.230500 0.176780 0.242215 0.501632 0.121349 0.298352 0.140872 -0.003794 -0.334831 -0.015063 -0.036179 -0.101612 0.112158 -0.188377 0.001774 0.002020 0.022579 -0.370517 0.114237 -0.503630 -0.004011
so 0.334323 -0.230447 -0.045574 0.070052 -0.451097 0.345755 0.112003 -0.427580 -0.362158 -0.255780 0.156110 -0.516317 -0.281214 0.234927 -0.136854 -0.173849 0.109749 -0.288771 -0.158063 -0.265001 -0.158723 -0.422867 -0.241589 0.050746 -0.288046 -0.105682 0.470028 -0.022705 -0.394029 -0.126004 0.247264 0.448652 -0.063206 -0.377225 -0.264742 -0.379886 -0.056018 -0.365073 0.275509 -0.359428 -0.040737 0.085129 0.222500 0.427226 -0.167779 0.170721 0.330242 0.573136 0.475758 -0.095551
her -0.102038 -0.067819 -0.012812 0.192634 -0.329176 -0.627287 -0.403318 0.193859 0.231508 0.284840 -0.560730 0.143033 0.151362 -0.329767 0.094202 -0.620789 -0.238351 -0.499668 -0.252161 0.065862 -0.761007 0.151739 -0.554978 -0.310589 0.147532 -0.628357 -0.524297 -0.412511 -0.133407 -0.088288 -0.247777 -0.068796 -0.557857 0.018921 -0.767163 -0.120601 -0.127751 -0.065851 0.074043 0.085807 0.084468 0.148244 -0.607051 -0.095989 -0.428459 -0.618732 0.065009 -0.689999 0.107454 0.342058
time 0.355377 0.291285 -0.158142 0.515777 0.004198 0.074716 0.268119 -0.030893 0.543860 -0.103952 0.383989 -0.045328 0.132119 0.144380 0.276841 -0.377115 0.309638 0.161581 -0.340031 0.277492 -0.132410 0.110679 -0.200192 0.229056 0.020573 -0.236503 -0.158097 -0.082029 -0.016383 0.436759 -0.131815 -0.235443 0.079642 0.313552 0.481105 -0.041123 0.050982 -0.034450 0.327230 -0.224707 -0.497183 0.102391 -0.039910 0.449685 0.270275 0.355593 -0.280755 -0.101910 -0.275658 -0.181276
craning 0.631723 0.328361 0.583802 -0.003208 -0.028621 0.351260 0.368456 -0.297709 0.512712 0.121539 0.462026 -0.027620 0.242529 -0.361602 -0.122156 -0.334800 0.263153 -0.092498 0.190911 -0.288182 0.001975 -0.360536 -0.149032 0.119743 -0.302422 0.440376 -0.145619 -0.007825 -0.234951 0.298414 0.125372 0.241372 -0.144901 0.441217 -0.270210 -0.324400 -0.043555 0.146605 0.443317 0.200851 -0.091428 -0.140031 0.327851 0.174204 0.373674 -0.209493 0.512007 -0.405692 0.490532 -0.083295
over -0.500887 0.100408 -0.512993 -0.337158 -0.708984 0.114594 0.061973 -0.058687 0.205084 0.090619 -0.259626 -0.571190 -0.735335 -0.337937 -0.414714 -0.303106 -0.111217 -0.299384 0.079476 -0.259195 -0.689753 -0.324853 -0.348462 0.211264 -0.093120 -0.054282 -0.402404 0.186850 0.009435 0.096078 -0.238611 -0.131027 -0.245933 -0.008194 -0.253141 -0.368742 -0.471609 0.001271 0.151008 -0.552605 0.000418 -0.378875 -0.028430 -0.003549 -0.571673 -0.799325 -0.114889 0.141099 -0.495861 -0.133763
garden 0.134862 0.000285 0.159871 0.313776 -0.133309 -0.430530 -0.127185 0.569905 0.005464 0.171452 0.165645 0.319903 0.182061 -0.325420 -0.362716 0.196670 -0.344861 -0.275656 -0.013840 -0.009456 -0.434843 -0.066789 -0.245513 0.354656 0.118088 -0.150634 0.339047 0.069519 0.229163 0.296390 0.304534 0.091493 -0.032609 0.039687 -0.265469 -0.133759 -0.137239 0.541728 -0.374040 0.281865 0.430731 -0.112393 -0.344972 0.084361 0.332853 0.223208 -0.049670 0.031575 0.425191 -0.002589
fences 0.499786 -0.346269 -0.156767 -0.361962 -0.382224 0.516804 0.335710 0.347233 0.081995 -0.314919 -0.195076 0.028888 -0.220626 -0.300264 -0.333498 -0.317778 0.313502 0.038976 -0.136242 0.267126 -0.096805 -0.050009 -0.039788 -0.171115 0.554170 -0.364188 0.331561 0.080881 -0.308797 -0.325629 0.370411 0.357786 0.303354 0.095939 0.274540 -0.335772 0.068963 0.337709 0.096810 -0.060718 0.494384 -0.319814 0.023232 -0.425283 0.084648 -0.374114 0.539310 0.214604 0.149456 0.413520
spying 0.031576 0.324893 0.414329 0.276411 0.003366 0.150022 0.027209 0.438757 -0.036755 0.305637 0.414885 0.510682 -0.135766 0.030641 -0.011743 -0.290358 0.494396 0.277964 0.043658 0.138917 0.284167 -0.319505 0.081114 0.256903 0.496470 -0.052579 0.272882 0.224699 -0.124759 0.391944 -0.065281 -0.098651 -0.275147 -0.030625 -0.015103 0.000459 -0.006744 -0.129096 -0.209883 0.139891 0.105518 0.351106 -0.151745 0.482962 -0.143660 0.206869 0.385086 0.568989 -0.054738 -0.304043
on 0.163148 0.261390 -0.439600 0.100137 -0.263116 -0.022576 0.032113 -0.367886 -0.140598 -0.155674 0.245790 0.149058 -0.006570 -0.099990 -0.288254 -0.410685 0.022269 -0.523661 -0.069838 -0.401079 -0.307303 0.291326 -0.233934 -0.370228 0.041734 0.192798 -0.185036 -0.325044 -0.724705 -0.571153 -0.529667 -0.203806 0.228201 0.001159 -0.101699 0.168446 -0.262015 -0.395535 -0.181443 -0.179815 -0.202403 -0.422735 0.067156 0.015398 0.011711 0.229680 0.135665 0.069039 -0.292981 -0.546505
neighbors 0.172657 -0.475259 -0.077595 -0.355839 -0.367704 0.025051 0.029101 -0.571559 -0.394595 -0.648891 -0.722418 -0.312626 -0.026673 -0.038290 -0.106881 0.005940 -0.247484 -0.199336 -0.709909 0.338331 -0.602123 -0.706301 -0.512226 0.192361 -0.005091 -0.116784 -0.192253 -0.340430 -0.675526 -0.039700 0.083896 -0.454395 -0.018063 -0.385002 -0.598765 0.064909 -0.585088 0.295557 0.092138 -0.416094 -0.421332 -0.113780 -0.521588 0.114434 -0.146767 -0.292116 0.058089 -0.566256 -0.495388 -0.140586
The -0.281797 0.335622 -0.542615 -0.164476 0.156510 -0.125915 -0.189305 0.263610 -0.454574 -0.026576 -0.183625 -0.109208 -0.140100 -0.333875 0.144317 0.315372 -0.543204 -0.219312 0.031843 -0.103406 -0.491230 0.259905 -0.249603 0.246554 -0.538263 0.244978 -0.501460 0.167122 0.029321 -0.558749 0.213548 -0.314705 -0.533105 0.213991 -0.018191 -0.411503 0.029985 -0.611259 0.159516 0.385873 -0.352305 -0.013940 -0.109851 -0.595457 -0.215702 0.292699 -0.248040 -0.236730 -0.118408 0.224387
Dursleys -0.372558 -0.409689 0.053630 0.039617 -0.504245 0.249306 -0.030936 0.292605 -0.204140 -0.552774 -0.198579 0.145464 -0.443220 -0.120742 0.335832 0.102159 -0.458179 -0.115277 -0.468394 0.221903 -0.319893 -0.059643 -0.643374 -0.150786 -0.182190 0.392653 -0.436366 -0.090527 -0.678466 -0.425571 0.388303 -0.229969 -0.158861 -0.439780 0.246246 -0.348989 -0.441592 -0.205402 -0.269599 -0.535845 0.116156 0.114419 0.367512 0.314695 -0.332633 -0.120228 0.190147 -0.149176 -0.216940 0.199369
small 0.297743 0.217968 0.037419 -0.519584 -0.294919 -0.154970 0.078208 -0.374892 -0.064619 -0.388535 0.393380 -0.855402 0.244147 0.057158 -0.508561 -0.212959 0.130135 -0.264553 -0.662141 -0.189541 0.220519 0.131728 -0.123647 -0.067644 0.108209 -0.142620 -0.719180 -0.146995 -0.315417 0.030739 -0.242888 -0.236830 -0.222121 -0.309952 0.097008 -0.435982 -0.639803 -0.055016 -0.766332 0.127274 -0.612590 0.144769 -0.623689 -0.742320 -0.643492 -0.630113 -0.325508 -0.454290 -0.005118 -0.762043
son -0.033671 -0.642652 -0.578547 -0.006638 0.207235 -0.532382 -0.292887 0.087617 0.159131 -0.292251 -0.205787 0.014347 0.008847 0.124652 -0.512185 -0.534733 -0.481840 0.100138 -0.419375 -0.586617 0.244953 -0.030023 -0.134208 0.176027 -0.379767 -0.663568 0.162790 -0.501161 -0.614389 -0.517796 -0.049947 -0.680600 -0.610184 -0.505524 -0.184841 -0.280631 -0.259647 -0.298395 -0.109172 0.066954 0.209751 -0.407544 -0.057669 -0.684146 -0.501620 -0.241475 -0.005443 -0.520433 0.197895 -0.153448
Dudley 0.232112 0.105162 -0.081225 -0.214596 -0.349672 -0.318020 -0.326795 -0.492601 -0.510746 0.123747 0.237301 -0.189620 0.124308 -0.474223 -0.490183 0.059951 -0.298512 -0.438720 -0.144356 -0.125411 -0.675621 0.052495 0.248211 -0.335384 0.064033 -0.178968 -0.427799 0.303142 0.108755 0.112836 -0.391232 -0.219726 -0.540785 -0.203258 -0.711173 -0.236710 0.127473 0.109559 -0.421965 -0.171979 -0.356516 -0.414270 -0.021211 -0.439888 -0.140174 0.187505 -0.300299 -0.366839 -0.235003 0.207513
their -0.540323 0.211523 -0.038400 -0.574952 -0.059098 -0.327583 -0.429398 -0.578141 -0.153261 0.021738 -0.178059 0.031580 -0.159361 -0.605040 -0.077920 -0.230830 0.139017 -0.231373 -0.351557 -0.232172 -0.643047 -0.798201 -0.425220 -0.531371 0.165730 -0.001696 -0.393175 -0.433712 -0.235045 -0.007306 0.010419 -0.127085 0.182163 -0.648746 -0.704801 -0.455132 -0.209768 -0.676653 0.088023 0.126465 -0.430467 -0.640286 -0.391691 -0.100462 -0.092792 -0.107824 -0.645060 0.013949 0.203050 0.046874
opinion 0.335636 -0.220483 -0.342674 0.328133 0.247131 -0.166631 -0.132419 -0.377497 0.080898 -0.013526 0.576996 -0.280200 -0.041205 0.113041 0.161322 0.091345 -0.358187 0.217397 0.217433 0.556109 0.425463 -0.410249 0.157223 -0.152637 0.080992 0.433335 -0.520031 -0.112212 -0.286655 -0.052684 -0.090939 0.422419 -0.015472 -0.064417 -0.139193 0.282568 0.071893 0.476940 0.475247 -0.254034 0.374647 0.386830 0.519031 -0.149541 0.113082 0.422856 0.033429 -0.233301 -0.318480 0.115895
there 0.325999 0.237884 -0.674067 -0.397162 0.102495 -0.354451 0.125434 -0.697434 -0.197817 -0.663468 -0.191116 -0.342984 -0.650740 -0.677987 0.163723 0.245638 -0.688196 0.057924 -0.137750 -0.321435 -0.697482 0.144393 -0.655191 -0.450416 -0.705909 0.072577 0.193028 -0.604306 0.024968 -0.096870 0.207297 -0.110150 -0.159767 -0.265222 -0.124210 -0.288130 -0.008966 -0.205668 0.179017 0.131377 -0.245125 -0.117122 0.257839 -0.109046 0.242139 -0.457923 -0.376506 -0.011573 0.148304 -0.586291
no -0.462781 -0.301310 -0.052047 -0.336073 -0.516622 -0.496295 0.103756 -0.209885 0.262908 -0.550098 0.406094 -0.467550 -0.278259 -0.139177 -0.030756 -0.000883 -0.236627 0.062718 -0.136647 -0.513021 0.086437 -0.089634 -0.085955 -0.501607 -0.125071 -0.165261 -0.404552 -0.224292 -0.016702 0.454666 -0.250619 -0.251818 -0.277699 -0.126645 -0.518291 0.084469 0.027924 0.201903 -0.133597 0.276794 -0.448351 -0.201597 0.113074 -0.117181 0.361419 0.110815 0.314129 -0.418553 0.243824 -0.405430
finer -0.399520 0.133474 0.416565 0.449197 -0.348493 0.289038 0.233232 -0.419783 -0.298615 -0.147844 -0.248459 0.561600 -0.302450 -0.328551 -0.375092 -0.030356 -0.026056 0.430630 -0.222647 0.571933 0.306150 0.470381 0.470072 0.008992 0.403109 -0.007113 -0.164178 -0.283710 -0.121690 0.130397 -0.433356 -0.327590 -0.258127 0.036013 0.233862 -0.148451 0.323625 -0.409845 0.530164 -0.369203 -0.410922 0.391978 0.065067 -0.091890 0.368141 0.144683 0.507875 0.220566 -0.023788 0.292737
boy -0.691854 0.112820 -0.647890 0.241915 0.013201 -0.047689 -0.682085 -0.019206 -0.201031 -0.032432 -0.216993 -0.352598 -0.309031 -0.694538 0.062404 -0.069089 0.111773 -0.544331 -0.423450 -0.017923 -0.211630 -0.613240 0.283885 -0.126746 -0.541823 -0.118707 0.085634 -0.076943 0.090455 -0.120490 0.042946 -0.194463 -0.111082 -0.622940 -0.406047 -0.513219 0.226011 -0.401787 0.025666 0.075699 -0.518615 -0.731733 0.145097 0.254105 -0.190581 -0.113517 -0.447777 0.309069 -0.416301 -0.635273
anywhere 0.097915 0.688303 -0.090981 -0.177607 0.142047 0.293681 0.515818 0.322131 0.639022 -0.042534 0.467581 0.740949 0.725504 0.604969 0.473673 0.230782 0.026553 -0.015805 0.290710 0.035827 0.378542 0.442397 0.102745 0.215579 0.596196 0.217193 -0.126744 0.100158 0.510235 -0.088191 0.757636 -0.143580 0.765529 0.224993 0.145375 0.629937 0.266231 0.706610 0.116580 0.089679 0.691051 0.243372 0.584202 0.623555 0.368985 0.433694 -0.216540 0.431717 0.627398 -0.069422
everything -0.414803 0.347089 0.425059 -0.027281 -0.395853 -0.389442 -0.389821 0.306449 -0.159742 0.487684 -0.172372 0.052216 -0.238165 0.398359 0.330700 0.330645 0.110701 0.409127 -0.448288 0.304106 0.283934 0.077871 0.240932 -0.384840 0.011439 -0.013596 0.082912 0.018861 -0.272943 -0.448270 -0.136405 0.173234 0.265911 0.225189 -0.240341 0.271073 0.352303 0.179199 0.136079 -0.434545 -0.321688 -0.176567 -0.344198 0.100653 0.032438 -0.359437 -0.248507 0.440694 0.384719 -0.293925
wanted -0.053848 -0.301830 -0.073905 -0.391983 -0.131937 0.289322 0.260934 0.093873 -0.094515 0.270242 0.181378 -0.264242 0.294529 -0.322497 0.056390 0.137040 -0.256128 -0.146093 0.438141 -0.031475 0.332322 -0.441274 -0.225823 0.408815 -0.451684 -0.014374 -0.046632 0.462811 0.228492 -0.385944 0.370871 0.482536 -0.471631 0.106335 0.194294 -0.162484 0.153177 -0.214573 0.107873 0.065386 0.248535 -0.016497 -0.079646 -0.406734 -0.108759 -0.464231 -0.312811 0.373881 0.061989 -0.044535
but 0.230017 0.131554 0.171907 -0.562731 -0.362960 -0.068858 -0.139820 -0.620641 -0.021933 0.276489 -0.009014 -0.563763 -0.022797 -0.463934 -0.581213 0.277963 -0.227472 -0.063915 -0.234675 -0.037937 -0.096218 -0.258748 -0.546335 0.376410 0.308914 -0.603629 0.136710 -0.581595 -0.183261 -0.606755 0.079000 -0.400512 -0.536245 -0.545565 -0.697909 -0.514271 -0.644255 -0.259236 0.127397 0.204647 0.029184 0.047334 -0.540674 -0.201478 -0.137670 -0.408821 0.168763 -0.265348 0.188673 -0.367568
also -0.302766 -0.038579 0.180627 0.260559 0.233409 -0.365292 -0.015813 0.390015 -0.386473 -0.276384 0.317676 0.334599 0.123004 0.526295 -0.294562 0.182483 -0.515836 0.141857 -0.418657 -0.395045 0.211757 0.075076 0.281291 -0.245624 0.106560 0.251073 0.011455 0.066010 0.131612 0.051220 -0.411233 0.159213 -0.369463 -0.413911 0.067764 0.424225 0.375616 -0.262685 0.066199 0.386395 0.523457 0.123121 -0.270859 -0.391717 -0.097701 0.454252 -0.211256 0.099261 -0.215007 -0.262727
secret 0.279428 -0.237618 0.570903 0.045133 -0.184805 -0.248244 -0.294759 0.057203 0.631430 -0.225994 -0.039315 -0.107674 0.131378 -0.259494 0.134507 -0.121618 0.506349 0.104708 0.389838 -0.100693 -0.048274 -0.151316 -0.095569 0.145708 0.412192 -0.242424 0.230133 0.574798 0.219177 0.307093 0.147176 0.697543 0.429822 0.590836 -0.255215 0.156152 0.025038 0.317700 -0.061560 -0.320733 0.078939 -0.246619 -0.067298 0.166091 -0.006062 0.259759 0.426907 -0.331991 0.181232 -0.066440
greatest -0.454760 -0.355708 0.528669 0.130406 0.412344 0.175326 0.386850 -0.227448 0.249373 0.012399 -0.346482 0.375142 0.239828 -0.126183 -0.190265 0.426773 0.316221 -0.084654 -0.109674 0.517620 -0.407164 -0.109875 0.342482 0.548916 -0.450963 0.160401 0.393537 0.210299 0.260666 0.256471 -0.054344 -0.161927 -0.215409 0.657752 0.043001 0.138337 0.365204 0.269807 -0.007520 0.117500 -0.394156 0.472304 0.266617 0.287834 0.313068 0.062474 0.129518 0.212756 -0.445404 0.016116
fear 0.045584 -0.038504 0.186791 0.136301 0.386401 -0.422525 0.298570 0.480135 -0.352882 0.438827 -0.309015 -0.259050 0.029724 -0.068709 0.117317 -0.156653 -0.022342 0.020801 0.185760 0.531338 -0.340508 0.291414 0.355992 0.258157 -0.443005 -0.067245 0.273296 0.223430 0.356681 -0.111256 -0.146791 -0.364152 0.314730 -0.453442 -0.036730 -0.281545 0.179958 0.150148 0.087162 -0.287862 0.341896 0.039124 0.547684 0.171708 0.060549 0.249172 0.372960 0.476479 0.439639 0.445067
somebody 0.111533 -0.246060 -0.389985 0.130875 0.074434 0.498446 -0.286828 -0.248557 -0.343988 0.012604 0.029368 0.368221 -0.293004 0.283307 -0.054871 -0.349205 0.144420 0.015293 -0.076545 0.555303 0.533194 -0.238228 0.150053 0.471709 -0.236536 -0.044281 0.424143 -0.336284 0.008905 0.049454 0.205134 -0.149128 -0.213775 -0.185769 0.022754 0.503842 0.432553 -0.240484 -0.024775 0.174363 0.586847 -0.388447 0.430328 0.277691 -0.038227 0.437435 -0.176164 0.601514 -0.388438 0.038607
would -0.351839 -0.503704 -0.177732 -0.653959 -0.060911 -0.323867 -0.377743 0.044578 -0.407318 0.027460 -0.076990 0.035889 0.286831 -0.267679 -0.712415 -0.204074 0.206698 -0.315920 -0.473878 -0.656568 -0.242499 0.110928 -0.094928 -0.109290 0.099292 -0.554199 0.295116 0.117061 -0.348305 0.192564 -0.151019 0.158101 0.123183 0.155965 -0.325851 0.004385 -0.130522 -0.068612 -0.246599 0.149844 -0.051933 0.054014 -0.592193 -0.803021 -0.506313 -0.662495 0.221947 -0.101859 -0.002954 -0.352163
discover 0.367903 -0.244673 -0.253439 0.147685 -0.177297 0.039051 0.517902 -0.329078 0.093100 0.077677 -0.288933 0.214403 -0.348337 -0.377308 0.234525 0.469683 -0.000402 -0.400782 0.420498 -0.208044 0.295945 0.123327 0.316062 0.220436 -0.195788 0.198043 0.046639 0.017938 -0.196797 -0.089355 -0.321164 0.491140 0.546300 0.535802 0.240381 -0.356406 0.231704 -0.178268 0.385160 0.260728 0.430378 -0.326740 -0.387928 0.618333 -0.102063 0.317228 -0.055634 -0.200798 -0.175078 -0.219669
it -0.193098 -0.236245 -0.115743 -0.434718 -0.163230 0.092064 0.123378 -0.593832 0.228461 -0.540658 0.231277 0.008384 -0.339234 -0.433779 -0.404826 -0.073450 0.276167 0.230229 -0.540251 -0.443656 -0.122760 -0.539694 0.115819 0.158712 0.201450 -0.041471 -0.045583 -0.050069 0.056231 -0.540146 -0.706557 -0.275756 -0.012747 -0.461943 -0.534953 -0.330109 0.161328 0.093907 -0.373858 0.001574 0.014906 -0.016395 -0.597420 -0.210877 0.205221 -0.360082 -0.592027 -0.007210 -0.178441 -0.180495
think 0.242945 -0.277328 -0.252492 0.156318 -0.793073 -0.211033 0.156597 -0.009408 -0.061599 0.107279 -0.775160 -0.582275 -0.296026 -0.291339 -0.755524 -0.017647 -0.146928 -0.249937 -0.478139 0.103384 -0.412578 0.097378 0.027765 -0.887886 -0.782737 0.174246 -0.710166 0.150384 -0.836504 -0.461666 -0.686365 -0.600124 0.072142 -0.722298 0.070732 -0.825174 0.087149 0.046304 0.101008 -0.502501 0.090655 -0.345901 0.069763 -0.290484 -0.025771 0.140060 -0.612390 -0.274277 -0.514150 -0.451479
could 0.250376 0.012013 -0.388725 -0.268152 -0.544327 -0.380162 -0.420630 0.068388 0.253101 0.329241 0.278405 -0.372178 0.121485 -0.009816 -0.200043 -0.123824 0.053109 0.031368 0.043055 0.086415 -0.591466 0.175855 -0.293976 -0.203633 -0.260862 -0.582933 -0.566304 -0.160004 -0.648264 -0.454871 -0.460022 0.335442 0.374784 -0.317491 -0.462153 0.055204 -0.075473 -0.574761 -0.570538 -0.450264 -0.010231 -0.618103 -0.036719 0.022393 0.099073 0.330575 -0.198380 0.104577 0.024074 -0.055745
bear -0.428151 0.120970 -0.304945 -0.532902 0.072384 -0.285153 -0.425973 0.237977 0.005792 -0.545735 0.367431 0.478646 0.410583 -0.179624 0.088269 -0.040959 0.023066 -0.342326 -0.095893 -0.533156 -0.497260 -0.078178 -0.012001 -0.501181 -0.122999 -0.398624 -0.035392 -0.113037 0.319252 -0.574819 0.407300 -0.334131 0.293936 -0.217481 -0.398047 0.007665 0.232722 -0.012035 0.400405 -0.305383 -0.474618 -0.201038 0.199514 -0.554998 0.252736 -0.529069 -0.169838 -0.492956 -0.271531 -0.031506
if 0.316314 -0.441610 -0.506069 -0.021576 -0.093559 -0.104683 -0.284728 0.167165 -0.204478 -0.328716 0.107785 -0.327246 -0.642310 -0.573534 0.061688 -0.105882 -0.235538 0.246503 -0.001958 -0.418712 -0.539202 -0.430467 -0.150303 -0.258957 -0.038716 0.006905 0.223493 -0.103514 -0.033480 -0.361518 -0.385606 -0.455577 -0.556627 0.178965 -0.041490 -0.714106 -0.598737 -0.555791 -0.593161 -0.654422 -0.117067 -0.453870 -0.137638 -0.096135 -0.510930 -0.488334 -0.406929 -0.273364 -0.501508 0.174363
anyone -0.097302 0.427189 -0.120464 -0.028215 0.506368 0.172764 0.244244 0.381384 -0.031061 -0.068781 0.185096 -0.047493 0.014901 -0.111667 -0.159480 -0.056915 0.292380 0.312828 0.520362 0.217041 0.230751 -0.343873 0.241370 0.191277 -0.075350 -0.126094 -0.103118 0.553692 -0.080964 0.234539 0.162474 0.359262 0.326008 -0.418732 0.353540 0.609047 0.347996 0.471219 0.472761 -0.392577 0.156739 -0.016604 0.446626 0.042355 0.356914 0.583428 -0.366832 0.283090 0.502454 -0.047492
found 0.013024 -0.332206 -0.391340 -0.146113 -0.182478 0.182975 -0.183419 -0.089255 -0.082581 -0.442688 -0.586706 -0.466572 -0.518314 -0.122346 0.324892 0.222168 -0.225817 -0.167277 0.100584 0.055869 -0.288610 0.174222 0.157778 0.227014 -0.390268 -0.192608 0.209679 0.350586 0.207307 -0.173126 -0.324170 -0.527701 -0.327558 -0.288460 0.001144 0.324619 0.069147 0.379205 -0.439090 0.053051 -0.083343 0.312657 -0.094288 0.237847 0.176871 -0.440277 -0.150820 0.134729 0.391854 0.416488
out 0.395685 0.108394 0.069979 -0.179480 -0.407105 0.234744 -0.126808 -0.335284 0.163875 -0.501172 -0.413089 -0.091868 -0.401944 -0.055231 0.036917 -0.068501 0.258275 -0.315214 -0.532274 -0.357293 0.037647 0.208696 0.086044 -0.394183 -0.456626 -0.459955 0.013737 -0.517118 0.038822 -0.081291 -0.351534 -0.543029 -0.457675 -0.484595 0.022191 0.176359 -0.266413 -0.406614 0.425618 -0.360896 -0.398566 0.279147 0.061726 0.153728 -0.590774 -0.103422 0.102323 -0.407338 -0.315378 0.189876
about -0.270873 -0.018119 -0.381521 -0.494225 -0.703239 0.065853 0.010204 0.257661 -0.444851 -0.143503 -0.323471 -0.323939 -0.482249 0.012785 -0.038828 -0.595601 -0.273673 0.351985 -0.661864 0.173757 0.220570 -0.032132 0.043849 -0.596163 0.055242 -0.477263 -0.729132 0.214973 0.136501 0.057246 -0.401849 -0.131509 0.218652 -0.502974 -0.655736 0.085974 0.016582 -0.425668 -0.124591 -0.106417 -0.545056 -0.374412 -0.275283 -0.724460 -0.537390 -0.441161 0.253474 0.135297 -0.193282 -0.563692
Potters 0.148117 -0.578130 -0.306047 -0.111109 0.271033 0.365937 -0.311573 -0.567336 0.042214 -0.539209 -0.069293 -0.290198 -0.290637 0.124397 -0.292864 0.233719 0.086540 -0.446117 0.031065 -0.482525 0.086636 0.045946 -0.263168 -0.300110 -0.019204 -0.500289 -0.442695 0.154492 -0.396831 0.073892 -0.459523 -0.644530 0.116932 -0.370403 -0.592657 0.165073 0.013636 -0.246237 -0.228994 0.168473 -0.400171 -0.386163 -0.625611 0.126039 0.293466 -0.296473 -0.642818 -0.065919 -0.274289 -0.420517
sister 0.012497 0.257499 -0.016167 0.274216 0.059071 -0.080925 -0.536850 -0.481672 -0.297600 -0.267440 -0.556975 0.077539 -0.369921 0.088176 -0.344102 -0.432349 0.046591 -0.344791 -0.397559 -0.285029 -0.617775 -0.224648 0.189422 -0.402208 -0.315263 -0.642984 0.157906 -0.219139 0.025363 0.217964 0.375607 -0.262386 0.072589 -0.006033 -0.577428 -0.463028 -0.452929 -0.634578 0.008477 0.288544 0.169621 -0.369567 -0.111562 -0.157614 -0.588793 -0.383672 0.196331 0.090109 -0.609550 -0.758068
hadnt 0.402384 0.298359 -0.225041 -0.078385 -0.328116 -0.098095 -0.025288 0.391914 -0.245323 0.356248 -0.340028 0.055481 0.225608 0.283472 -0.062597 -0.298124 0.062888 0.381528 -0.414464 -0.479797 0.339846 -0.158759 -0.269105 0.050679 -0.044435 -0.329830 0.079036 -0.225775 0.108535 -0.161910 -0.306271 0.223970 0.398082 0.452770 0.363171 0.365891 -0.186090 0.211483 0.422727 -0.286962 0.189280 -0.049405 0.334313 -0.071917 0.038578 -0.127067 0.348439 -0.024341 -0.322351 0.123505
met 0.470420 0.055157 0.550613 -0.298673 0.474657 -0.197657 0.387920 0.372962 0.324441 0.267140 -0.360631 0.269939 0.060817 0.430199 0.582391 0.442328 0.331547 -0.378993 0.180672 -0.069275 -0.062095 0.086251 0.079138 0.401935 0.253892 0.340998 -0.248323 -0.415273 -0.228910 -0.093418 0.545188 0.278601 0.341000 0.328152 -0.135425 -0.253834 -0.181034 -0.103056 0.206109 0.281730 0.211510 0.385760 0.444122 0.525971 -0.135360 -0.205740 -0.219674 0.263164 0.327685 0.013101
for -0.164103 -0.267631 -0.301874 -0.095690 -0.399335 0.074275 -0.315991 -0.572102 -0.083571 -0.004308 0.007363 -0.688620 -0.166354 -0.609701 -0.655311 -0.213017 0.302506 -0.195657 -0.287261 -0.563476 -0.005077 0.134090 -0.689636 0.040514 -0.128581 0.164118 -0.582794 -0.444620 -0.648620 0.064608 0.211790 -0.388078 0.008591 0.133203 -0.226921 -0.076384 -0.259061 -0.689905 -0.325063 -0.295834 0.074239 -0.151373 -0.523330 -0.052608 0.398107 0.008162 -0.500893 -0.556147 0.218019 0.171548
several 0.162410 0.447479 -0.101306 -0.133956 0.131952 -0.382098 -0.109794 -0.159561 0.274833 0.371636 -0.019652 0.216495 0.278934 -0.020022 -0.016536 -0.360963 0.246807 -0.283529 0.197948 0.138034 -0.145011 0.243609 0.224877 -0.072448 -0.094011 -0.137099 -0.300013 0.500313 -0.455346 0.452195 -0.489794 0.319140 -0.362425 -0.186616 0.320612 0.030183 -0.365049 0.255446 -0.146702 -0.171887 -0.268961 -0.547275 -0.330159 0.341677 -0.361853 -0.358006 0.269592 0.137181 -0.439265 -0.507098
years -0.129520 -0.222769 -0.220514 0.162144 -0.441611 0.045139 0.314556 0.493748 0.419906 0.454482 0.028524 0.517095 -0.041336 -0.179394 -0.247868 -0.144188 -0.241402 0.337950 0.275517 -0.103191 0.274979 0.292672 0.495791 -0.291669 0.293878 0.294390 0.019603 -0.450439 -0.160620 -0.308579 0.358518 -0.214265 0.619572 -0.088414 -0.121229 0.243366 -0.317289 0.438638 0.043533 0.355289 -0.436742 -0.135052 0.432446 0.106072 0.390043 0.151401 -0.008032 0.243051 -0.038096 -0.289122
fact 0.608417 0.548732 0.599559 0.473374 -0.374412 0.392933 -0.096776 0.412954 0.355542 0.486580 0.139976 0.129742 -0.308772 -0.301208 -0.060161 0.322208 -0.071424 -0.376006 0.332778 -0.059089 0.074562 -0.401268 -0.169955 0.212017 0.400905 0.247403 -0.311256 -0.252451 0.207930 -0.419106 0.473798 0.397915 0.506907 -0.007344 0.272807 0.694916 0.495623 0.321245 0.046028 0.085252 0.369305 0.497582 0.325469 0.303748 0.010754 -0.110897 0.153335 0.510559 0.346838 -0.072669
pretended -0.075878 -0.138601 0.373637 -0.342485 -0.049677 -0.443455 0.286176 0.383673 0.009852 0.508012 0.285152 -0.055299 0.413811 0.466466 -0.380759 0.047772 0.360196 0.403137 0.400007 0.467173 0.277274 0.438696 -0.185949 0.128203 -0.175651 0.048945 0.535482 -0.096871 -0.276175 0.044339 0.115318 -0.126348 0.278909 -0.350868 0.042373 -0.201546 0.067732 0.249561 0.044001 0.172540 -0.089022 -0.411625 -0.222095 -0.183284 0.531111 -0.334717 0.119588 0.343486 -0.382067 0.266931
goodfornothing 0.268464 0.402109 0.443567 0.258497 0.069406 -0.098300 0.464556 -0.119979 0.476761 -0.286392 0.222829 -0.121966 -0.431645 -0.319145 -0.339540 -0.366505 -0.353899 -0.073117 0.462463 -0.305008 0.232175 0.049093 0.114134 0.382422 -0.185325 0.252219 0.194831 0.261646 0.166415 0.000584 0.089172 0.000860 0.201499 0.232799 0.482676 -0.343193 0.110144 0.467483 0.228087 -0.049957 -0.267296 0.031404 -0.385923 -0.116622 0.121317 -0.405617 -0.420429 -0.083088 -0.183291 -0.327431
husband 0.283881 0.535639 -0.318934 0.261731 0.434327 0.091880 -0.101342 0.133400 0.045553 -0.029556 0.319116 -0.129135 -0.180130 -0.005344 -0.300464 -0.149839 0.502136 -0.428102 -0.322121 -0.139241 -0.052977 -0.386603 0.457645 -0.148442 -0.202341 0.222729 0.458156 0.460273 0.291860 0.105478 -0.330244 0.086174 0.451963 0.070587 0.180945 -0.394209 0.548404 -0.090676 -0.295246 -0.008009 -0.258906 -0.146601 -0.106565 -0.411698 0.483237 0.493150 0.239042 -0.234948 -0.019290 0.556980
unDursleyish -0.100583 0.071670 0.531223 -0.261450 -0.253892 -0.287267 0.317338 0.434322 -0.111189 -0.089267 -0.139200 0.572202 0.059507 0.240361 0.232217 -0.045648 0.298746 0.529030 -0.103879 0.054027 0.428314 -0.011942 -0.071909 0.579456 -0.235736 0.044848 -0.301524 -0.447722 0.564249 0.624939 -0.141234 0.325375 -0.329797 0.125722 -0.171905 0.299185 0.381343 0.002551 0.331924 0.495418 0.142437 -0.204919 0.173856 -0.398662 0.088490 -0.395687 -0.345946 -0.116716 -0.241813 0.239226
possible -0.033507 -0.329629 0.129522 0.347601 0.271776 -0.195298 -0.169840 -0.143868 0.384705 -0.451782 0.200688 0.493206 0.498329 0.220556 0.557354 -0.005843 0.481646 0.462651 0.516722 0.346003 -0.046288 -0.082490 -0.279190 0.411676 0.336862 -0.048646 -0.174471 0.079495 0.108808 0.270879 0.208905 0.458795 0.205128 0.285546 0.190965 -0.210828 0.478199 0.417827 -0.231661 0.455181 -0.350995 0.580649 0.338312 -0.328012 0.573468 0.285923 0.370326 -0.264653 -0.050342 -0.336060
shuddered -0.331781 0.541529 -0.219967 -0.134781 -0.050008 0.261677 0.550450 0.527767 -0.013666 -0.147649 0.540196 -0.067750 0.011969 -0.201136 0.598711 0.523034 -0.181068 0.520700 0.354608 0.137546 -0.224494 0.308517 -0.069216 -0.114580 0.523541 0.190589 0.504891 -0.018799 -0.309733 0.485578 0.473471 -0.175272 -0.301697 0.307036 -0.259100 -0.282842 0.347213 0.011756 0.411918 0.128157 0.466713 -0.115252 -0.296990 0.079028 -0.206665 0.483806 0.055034 -0.066184 0.170153 0.180886
what -0.338229 0.087321 -0.563866 -0.544340 -0.512727 0.333455 0.098042 -0.536022 -0.286327 -0.173317 0.233875 -0.403444 0.153463 -0.147114 -0.412302 0.324380 0.116119 0.357008 0.043581 -0.486767 -0.478518 -0.634952 -0.185590 -0.580509 0.084044 -0.430905 0.109195 -0.142698 -0.340121 -0.287389 0.016716 -0.246697 0.201946 0.071434 0.257874 -0.344506 0.216977 -0.655971 -0.219732 -0.112919 0.179577 -0.519304 0.150884 -0.489027 -0.113279 -0.536894 0.070553 -0.322965 -0.015167 -0.304855
arrived 0.040469 0.350671 0.179210 -0.474362 0.209827 0.165545 -0.434841 -0.031320 -0.198796 0.060356 -0.198512 -0.325863 0.128990 0.161825 -0.325873 0.285429 0.259910 -0.366396 -0.457308 -0.449933 -0.192568 -0.245790 0.096356 -0.102114 -0.389961 0.155503 -0.393823 -0.512325 0.058778 0.169226 0.090264 0.058627 -0.357012 -0.410809 -0.059516 0.412530 0.269744 -0.375857 0.232162 0.432556 -0.548911 -0.127330 -0.278105 -0.074487 0.193087 0.293548 0.311143 0.261423 0.291899 -0.625044
street -0.429028 -0.573529 -0.380518 -0.412075 -0.123140 0.344971 0.230343 -0.114814 -0.436066 -0.129212 -0.225663 -0.665608 0.181877 0.376148 0.366661 -0.162555 -0.029088 -0.200232 -0.390337 -0.222211 -0.406989 -0.045463 -0.402196 -0.308688 -0.452173 0.287133 0.099196 -0.253416 -0.288772 -0.598247 0.113319 -0.091615 -0.249972 -0.245002 0.461143 -0.505535 -0.373035 -0.241885 -0.268373 0.006359 -0.520780 0.313424 -0.577058 -0.038370 -0.404489 -0.438078 -0.545041 0.102300 -0.410635 0.336069
knew -0.102473 -0.199235 0.256190 0.585931 0.100805 -0.031621 -0.152234 -0.153377 -0.221133 -0.377610 -0.008493 0.317728 -0.260724 -0.124098 -0.027590 0.413284 -0.335516 0.439054 0.170098 -0.233649 0.461944 -0.198176 0.121453 0.172663 -0.220499 0.606978 0.447569 -0.228657 0.363525 0.260678 0.474489 -0.346977 -0.128152 0.219584 -0.092323 -0.258494 0.398564 0.550274 0.473421 -0.391575 -0.088823 -0.074384 0.323621 0.331487 -0.307809 0.160448 -0.130371 -0.040007 0.269008 0.469293
too 0.561124 -0.322787 -0.279208 -0.402815 0.332908 0.352348 -0.303800 -0.047578 0.092207 -0.202686 -0.378472 0.442567 0.043126 0.405120 -0.122346 -0.357693 0.237447 -0.011814 -0.455294 0.068976 0.250428 0.442547 -0.148769 -0.304321 0.393614 0.546876 -0.132733 0.351961 -0.026448 -0.467395 0.187253 -0.321514 0.380882 -0.328926 -0.198661 -0.377734 0.503476 -0.308064 -0.284544 0.142473 -0.058737 -0.114722 -0.396711 -0.441245 0.440001 0.274069 0.324419 0.462442 -0.118451 -0.257889
never -0.387277 -0.298204 0.030640 -0.390988 -0.267876 0.103019 -0.046585 -0.029051 0.392121 -0.553792 0.239764 -0.199588 0.176523 0.444927 0.104230 0.117956 -0.386471 -0.051154 -0.416243 0.295426 -0.034126 -0.514313 -0.230927 0.463261 0.426406 0.227185 -0.176118 -0.289370 0.362617 -0.375263 0.228402 -0.022955 0.321184 -0.252277 0.298456 0.009558 0.232088 -0.140752 0.115654 -0.095563 -0.148592 -0.187686 0.138699 -0.237243 -0.144747 -0.429900 -0.341132 -0.371122 -0.452660 0.047210
even -0.467565 0.321767 -0.035158 -0.100279 0.012216 -0.322933 -0.278285 -0.280362 -0.404104 0.277165 -0.328140 0.150269 -0.125091 -0.257782 -0.026583 0.342920 0.067588 0.438257 -0.410889 -0.267659 -0.283065 -0.458391 -0.208172 -0.473903 0.210712 -0.482387 -0.307709 0.054519 0.089040 0.255017 -0.115939 -0.070154 -0.072403 -0.106748 0.399848 -0.450503 -0.004248 0.244302 -0.221700 -0.440945 0.258163 -0.344462 0.085648 -0.408628 -0.124342 0.340757 0.411212 -0.087383 0.061632 -0.432960
seen 0.009075 -0.061834 0.268688 -0.006930 -0.365952 0.281402 0.061927 -0.535241 0.419672 -0.558890 0.186304 -0.390945 -0.508532 -0.271044 -0.411973 -0.552709 0.150670 -0.465960 -0.449012 -0.298648 0.177555 -0.133108 -0.648184 -0.072725 0.055401 -0.142686 -0.269407 0.224920 0.234092 -0.158067 -0.078524 -0.220930 0.169810 -0.430631 -0.363578 -0.452105 -0.086603 0.137100 -0.512336 -0.109021 -0.643880 -0.021946 -0.204740 -0.313227 -0.263333 0.389115 0.306019 0.178353 -0.059283 -0.346196
him -0.450717 -0.321265 -0.218751 -0.087515 -0.544737 -0.527977 -0.263139 0.222470 -0.509727 0.292024 -0.163121 -0.685759 -0.045759 -0.157315 -0.360301 -0.329741 -0.230844 0.277621 0.237140 -0.063867 0.192918 -0.194749 0.254320 0.341453 -0.238356 -0.220951 -0.072300 -0.417224 0.220699 0.133786 -0.556228 0.234985 0.348063 -0.127643 0.190894 -0.235291 0.227530 -0.167700 -0.194177 0.113759 -0.193592 -0.574820 -0.347833 0.055303 0.282619 0.141936 0.147258 -0.255287 -0.341789 0.179256
This -0.022792 -0.201928 0.461548 -0.379246 -0.294022 0.036770 0.344875 -0.368334 -0.263101 0.297595 -0.367481 -0.163337 0.372373 -0.462418 0.216310 -0.333631 -0.364172 0.135369 -0.199683 -0.399709 -0.190964 -0.272000 -0.102201 0.491580 -0.420682 -0.367758 0.272849 -0.183275 0.313416 0.312043 0.081263 0.340234 0.176488 -0.305099 0.130810 -0.182915 0.315421 -0.377941 0.081207 0.452350 0.171611 0.428494 0.225028 0.246882 -0.296198 0.186648 0.457361 -0.277780 0.323756 -0.375962
another -0.120107 0.561069 0.555212 0.292497 0.013172 0.371475 0.155122 0.089214 0.152048 0.065392 -0.211673 0.345419 0.152384 0.310339 -0.376774 -0.165523 0.520754 0.264059 -0.233769 -0.197349 -0.128856 0.372115 0.095709 -0.057937 0.418997 -0.038631 0.486925 0.222871 0.145093 0.538686 -0.260982 0.043194 0.214054 -0.081125 0.365809 0.307577 0.573811 0.459656 0.106846 -0.304021 0.268314 -0.222716 0.564636 -0.037808 -0.129120 0.446306 0.366089 -0.315779 0.039452 0.287249
good 0.434620 0.074647 0.491423 0.080552 -0.202488 -0.281704 0.403424 0.027239 0.407527 -0.280786 0.014393 0.514256 0.193435 0.283838 0.072919 0.422206 -0.226507 0.025333 -0.002706 -0.070355 0.494094 -0.047129 -0.313585 0.533319 -0.127012 0.046975 0.185246 0.153426 0.022895 0.065880 0.508721 -0.464141 0.322693 -0.409030 -0.212528 0.371082 -0.374423 0.232179 -0.109108 -0.145866 0.494837 -0.158047 0.360711 0.297701 0.024828 0.169205 0.514784 -0.072097 0.279697 0.467343
reason 0.153107 -0.304764 0.054044 0.587870 -0.051651 -0.261187 -0.285174 -0.119127 0.585074 -0.003888 0.616189 0.012185 -0.343342 -0.169079 -0.293892 0.272866 -0.352501 0.408606 -0.395323 0.475431 -0.160980 0.400289 0.025561 0.181323 0.204692 0.285138 0.559807 -0.000211 0.484908 -0.310533 0.325246 -0.252456 0.420467 0.563315 0.295728 0.025515 0.639860 0.460401 0.151081 0.457211 0.374962 0.133444 -0.164106 -0.144992 0.586022 -0.028998 0.407545 -0.256605 -0.055733 -0.073083
keeping -0.211387 0.236903 0.536327 -0.134898 -0.186068 -0.186973 -0.254317 0.540945 -0.083267 0.447689 -0.208626 -0.090767 0.263415 -0.046191 -0.096578 0.559044 0.159732 0.524469 0.489541 0.165946 0.292539 -0.074024 -0.232180 0.063705 -0.227243 -0.198769 0.353618 0.366562 0.561592 0.384588 -0.264737 -0.001629 0.295082 0.475712 0.086089 0.108814 0.530516 0.043800 0.174577 -0.114503 0.579921 0.289095 0.477273 -0.151416 -0.016736 -0.106147 -0.327893 0.201312 -0.166645 0.477899
away -0.421225 -0.189397 0.165825 -0.127481 -0.387493 -0.030391 -0.624071 -0.610026 0.248612 0.073870 0.151990 -0.598433 -0.585787 0.064961 -0.124504 -0.522946 -0.525981 0.173059 0.109499 -0.118075 -0.012046 -0.232398 0.180757 -0.080970 -0.330567 0.120485 -0.644837 0.155608 0.062460 -0.323108 -0.427657 0.149194 -0.249585 0.324661 -0.616663 -0.004561 -0.103703 0.128211 -0.441685 0.419573 -0.341529 0.031805 -0.523595 -0.411877 0.075512 -0.541565 -0.108077 -0.233100 -0.284921 -0.462574
want 0.227120 -0.240821 -0.251656 0.570597 -0.307964 -0.085451 -0.223098 0.093076 0.012864 0.178938 0.153869 -0.211776 0.353842 0.207079 -0.164212 -0.175220 0.153043 -0.159368 0.428671 0.027216 -0.002884 0.251546 0.612933 0.520220 -0.047471 0.309068 0.430840 -0.009588 -0.187603 0.404114 -0.301632 -0.234277 -0.357472 0.356097 -0.304839 0.358697 -0.203331 0.564958 0.404739 0.563027 0.230434 0.685508 0.646714 -0.168729 0.376797 -0.167026 -0.296579 0.382554 -0.397328 0.641566
mixing 0.229248 0.164915 0.295762 0.157077 0.233019 0.416328 -0.098332 0.117478 -0.091526 -0.252232 0.195811 0.202639 0.150644 0.497501 -0.273557 -0.325992 0.287092 -0.166687 -0.080664 0.542449 -0.301375 -0.099041 0.424223 0.200683 0.060792 0.569710 -0.150881 0.488918 0.247759 0.095343 -0.342517 0.122959 -0.244321 0.421282 -0.381444 0.495799 -0.083324 0.388999 0.406292 -0.312683 0.521087 0.265976 0.558152 -0.251174 0.130135 0.153484 -0.325840 0.489310 -0.030558 0.111532
child -0.237413 0.470484 -0.181167 -0.389688 0.083359 0.343055 0.274771 0.410715 0.139304 0.412156 0.072033 0.235031 -0.324878 0.722644 0.489808 0.292663 -0.317890 0.578783 -0.228397 0.540418 0.053923 -0.299256 0.667442 0.491286 0.554337 0.666768 0.082441 0.256055 -0.021991 -0.321756 -0.164675 -0.035098 -0.311976 0.214536 -0.011726 -0.253719 0.504064 0.420352 -0.066382 -0.065412 0.146447 0.636017 -0.046179 -0.045203 -0.148866 0.558291 0.515599 -0.348343 0.191051 0.018857
like 0.053440 0.002411 0.322936 -0.065697 0.237573 0.449384 -0.238145 -0.108844 -0.088278 0.581704 -0.020201 0.048091 0.150863 0.476001 0.262746 -0.312238 0.373796 -0.209824 0.481875 -0.058513 0.150218 -0.317888 0.246038 0.525337 -0.257788 0.025554 -0.335413 0.274893 -0.226497 -0.099225 -0.107082 0.570630 0.334932 -0.025503 0.353933 0.201867 0.041898 0.429509 0.466397 -0.327785 0.428029 -0.365268 0.541084 0.209446 -0.185410 0.204571 0.306789 -0.181639 -0.213190 0.494818
When 0.343808 0.504802 0.673992 0.405327 0.539480 0.430788 0.389611 -0.138109 0.265266 0.305004 0.611413 0.362476 0.181742 0.122462 0.466331 -0.073816 0.289013 0.567841 -0.007208 0.659872 0.507971 0.568694 -0.154406 -0.016172 0.178350 0.510489 -0.167125 0.225530 0.379574 -0.103840 -0.051810 0.627118 0.355317 0.625036 0.073146 0.749416 -0.004172 0.582403 0.494368 0.230216 0.108331 0.437950 0.256920 0.696012 0.118856 0.555631 0.030216 0.628997 0.595008 0.781720
woke 0.175272 0.073855 -0.264800 -0.106777 -0.234158 0.515394 0.614374 -0.290653 0.340405 0.425585 -0.185925 -0.217142 -0.112795 0.268743 0.152020 -0.116113 -0.029320 0.558918 -0.054207 -0.249178 0.089429 -0.028690 -0.066158 0.747278 -0.102797 0.059365 0.173093 0.352023 0.221342 -0.155637 -0.085837 -0.085779 -0.048415 -0.175264 0.468007 0.245125 -0.272284 0.057641 -0.089543 0.287072 -0.282309 0.060635 0.293714 0.124589 0.127680 0.552959 -0.250078 -0.044154 0.441341 0.156044
up -0.047670 -0.106793 -0.592478 -0.009571 -0.264665 0.006783 -0.092928 0.215780 -0.563401 -0.386950 0.047696 -0.592973 0.240188 -0.526399 -0.403564 0.167600 -0.170991 0.206218 0.235233 0.319019 -0.598751 -0.038214 -0.630832 0.157762 -0.011871 0.005735 -0.643443 -0.013331 -0.298769 0.035497 -0.549856 0.092268 -0.380972 0.245051 -0.055929 -0.257380 -0.547761 -0.056079 -0.441221 0.159865 0.094103 -0.237579 -0.252193 -0.474816 0.323132 -0.551288 -0.183662 -0.476859 0.221303 -0.101429
dull 0.415749 0.038137 -0.294636 0.563289 -0.138748 0.247216 0.136391 0.507473 0.106555 0.475891 0.685343 -0.044900 0.332144 0.635828 0.149505 0.517556 -0.184702 -0.215430 0.418214 0.369328 0.246677 -0.018586 -0.368776 0.014981 0.121284 0.486587 0.047087 -0.328570 -0.022006 0.250638 0.519890 0.171812 0.562585 -0.026946 0.399662 0.233613 0.350442 0.077719 0.223706 0.531534 -0.196487 -0.072385 0.574252 -0.027833 0.455216 0.611095 -0.241603 0.287610 -0.281773 -0.070322
gray 0.624471 0.243549 -0.170722 0.451757 0.554477 0.018830 -0.259315 -0.367915 0.596167 -0.352296 0.254683 0.252824 0.328471 0.204236 0.303802 0.189236 -0.087087 0.320030 -0.305133 0.683646 0.178370 0.352371 -0.086596 0.436020 -0.167474 0.556625 0.357663 -0.204213 0.411928 -0.341480 -0.104538 -0.093442 -0.221726 -0.136786 0.573870 -0.179685 0.217343 0.503218 0.477605 -0.075394 0.484735 0.152437 -0.239700 -0.306029 -0.219012 -0.307742 -0.057032 0.576515 -0.394596 0.524292
Tuesday -0.198048 0.023844 0.244664 -0.077646 0.323919 0.388665 0.132030 -0.294231 -0.211909 0.270519 -0.108919 -0.378429 -0.211107 -0.169421 0.355603 -0.359763 0.361685 0.481500 0.151951 -0.378246 0.345949 -0.392524 0.403433 0.173486 0.551179 -0.214714 0.040079 0.312494 0.522435 0.343101 0.376740 0.410761 0.039315 0.308860 -0.002278 0.578545 -0.275500 0.140800 0.537565 -0.035885 0.339129 -0.037711 0.298047 0.114646 -0.189481 -0.058976 0.282047 0.325286 0.175478 0.235017
our 0.466931 0.223118 0.583283 -0.165543 0.144059 -0.310378 0.391391 0.369650 0.362296 0.301450 -0.382140 0.029133 -0.114602 -0.028248 0.545912 0.368118 0.350962 0.459373 0.142271 -0.255988 0.046571 -0.369639 -0.223117 0.585754 -0.010986 0.367576 -0.162291 0.301424 0.579476 -0.386796 0.197799 -0.289300 0.086006 -0.074207 0.537202 -0.200331 -0.011280 0.202490 0.135871 -0.033543 -0.422051 0.618871 0.553788 0.619681 0.303640 0.132703 0.197618 0.560000 -0.306751 0.575313
story 0.320610 -0.214135 0.036828 -0.171895 -0.137214 0.184368 0.335331 -0.281607 0.363915 0.130144 -0.259681 -0.270618 0.328737 0.080155 0.583646 -0.220038 0.214462 0.355899 0.062630 0.339896 -0.051236 -0.165788 -0.287795 0.087145 -0.166515 -0.005378 -0.219801 0.175932 0.023714 0.359190 -0.321605 -0.320889 0.423453 0.604021 -0.214294 -0.335403 -0.113949 0.355381 0.391362 0.491509 0.498721 0.019790 -0.135241 0.042491 -0.234816 -0.273174 0.479374 0.176220 0.052815 0.565225
starts 0.640016 -0.118399 0.422589 -0.241683 0.269336 0.428467 0.430358 -0.062203 0.179163 0.538999 0.354176 0.316905 -0.326335 -0.056101 0.397848 -0.138269 -0.165143 0.597702 0.235894 0.385870 -0.182323 0.024606 0.624249 -0.187723 0.403516 0.628669 -0.261161 0.082693 0.332943 0.043942 0.511958 0.576268 0.027991 -0.226784 0.346504 -0.231073 0.102666 0.019042 -0.066933 0.184984 0.550488 0.276056 0.443156 0.248108 0.666169 -0.190484 0.032463 0.563236 0.055643 0.165121
nothing -0.071834 -0.442671 0.303334 0.374640 -0.375029 -0.552486 -0.384558 0.314810 0.081407 -0.504988 -0.070504 0.427341 0.054121 -0.144365 0.103346 -0.080796 0.221504 0.009811 0.013280 0.117404 0.165967 -0.167747 0.108516 0.047116 -0.451542 0.256077 -0.081018 -0.073305 -0.274786 -0.158970 0.471946 0.330812 0.240369 -0.454271 0.317220 -0.025585 -0.252392 0.293455 -0.279713 -0.108253 -0.226729 -0.544085 -0.485039 0.221084 0.309896 0.123751 -0.416899 -0.396165 -0.033387 0.161692
cloudy 0.011389 0.168622 0.373338 0.412200 0.634971 0.430027 -0.084599 0.196120 0.475134 -0.256021 -0.146151 -0.026974 -0.317978 0.017307 -0.051996 0.570398 -0.048737 0.164964 0.103840 -0.178261 -0.195393 0.131150 -0.306022 0.644360 0.272498 -0.173641 0.363956 0.629798 0.455822 0.562716 0.068507 0.097064 0.594205 0.015629 0.496328 0.353608 0.385389 0.656795 0.091680 -0.108384 0.306366 -0.063313 -0.298234 0.658672 0.389065 -0.086950 -0.000480 -0.167147 0.382515 -0.341412
sky 0.547602 0.409721 0.392438 -0.030073 0.449626 -0.118503 -0.391596 -0.202123 0.401533 -0.018500 0.242357 0.010144 -0.162587 0.218918 -0.014143 -0.144074 0.147249 0.404955 0.246035 -0.264601 0.456757 0.603879 0.146555 0.387707 0.303644 0.627856 0.331392 -0.314005 0.431325 0.284605 0.298673 -0.377654 -0.212123 0.347302 0.173667 -0.319194 -0.219748 0.043868 0.155583 0.178155 -0.017863 0.129657 -0.254299 0.515051 -0.251876 0.172642 -0.345420 0.285487 -0.033224 0.138165
outside 0.573787 -0.047574 0.011797 0.431161 0.491662 -0.336610 0.298952 0.277297 -0.141966 0.251809 0.132735 0.071096 0.056550 0.458332 0.227557 0.231646 -0.143641 -0.208294 0.174926 -0.423528 0.051937 -0.052850 0.382092 0.217657 -0.000920 0.192726 0.077002 0.255750 0.002854 0.412769 0.016358 0.429361 -0.275903 0.082607 -0.196514 -0.047847 0.182837 0.292688 -0.347225 0.365026 -0.000422 0.515741 -0.391684 0.492784 0.044317 0.257273 0.523423 0.008269 -0.015742 0.089849
suggest 0.444838 0.274462 -0.039559 0.149327 0.190458 0.117404 0.587823 0.048187 0.220369 -0.084583 0.473000 0.538308 0.001584 0.148758 0.356298 0.187416 0.467659 0.288088 -0.389029 0.369159 0.241024 0.278663 0.506553 0.183366 -0.257233 0.363449 -0.102201 -0.417314 -0.027454 -0.074218 0.106312 0.538961 0.221274 0.362785 0.234037 -0.044138 -0.204191 0.613336 -0.201324 0.442547 -0.268269 0.276014 0.142052 0.465699 -0.075795 0.672923 0.101078 0.117094 0.369346 0.152022
things 0.551509 -0.267370 0.184978 0.598820 -0.144313 0.350294 -0.338005 0.557515 0.497736 0.081839 0.188504 -0.094000 -0.097916 -0.251015 -0.378598 -0.142465 -0.172220 0.493645 0.172555 -0.059138 0.065804 -0.113813 -0.420555 0.633247 -0.035590 0.380899 0.382990 0.066548 -0.345724 0.100997 0.017771 -0.158247 -0.064751 0.504603 0.504882 0.011845 0.100288 -0.059811 0.573582 0.219310 -0.196972 -0.158698 0.304756 -0.355543 0.032863 -0.071878 -0.281656 0.274640 -0.281215 -0.091828
soon 0.368306 -0.369588 0.007220 0.045296 0.036693 -0.056638 -0.341943 -0.105010 0.302898 0.361002 0.047711 -0.007549 -0.389567 0.358728 -0.245908 -0.284955 0.429635 0.004425 0.016597 -0.223913 0.038022 -0.115382 0.004246 -0.124914 -0.321440 0.369772 0.526275 0.040632 -0.043300 0.613943 0.306844 -0.302163 0.512726 0.223700 -0.262165 -0.216498 -0.209222 0.258232 0.162186 -0.279182 0.435373 0.159678 0.459575 -0.425740 -0.080933 0.054884 0.277276 -0.305429 0.547615 0.355185
happening -0.239348 -0.048896 0.182090 0.165846 -0.295146 -0.013504 -0.186576 -0.228198 0.320048 0.465566 0.529316 0.041515 0.292504 -0.016119 -0.000398 0.316277 0.627906 -0.002408 -0.205847 0.132492 0.429706 -0.300559 0.343576 -0.000716 0.027943 -0.293815 0.521218 -0.029129 0.161388 -0.178233 -0.196056 0.375464 0.273083 0.607927 0.140183 -0.272655 -0.252174 0.322343 -0.265945 -0.147150 0.321711 0.355958 0.151860 0.167569 -0.277166 -0.238243 0.099789 0.100513 0.498886 -0.125897
all -0.383430 0.220394 -0.202838 -0.204631 -0.244895 -0.256574 -0.124879 -0.198904 0.123810 -0.360710 -0.263881 -0.073377 -0.201807 -0.177653 0.365257 -0.111880 -0.052895 -0.206467 0.027939 -0.133280 -0.372737 0.107949 0.090428 0.243347 -0.521623 -0.337830 -0.335149 -0.510299 0.166157 -0.536238 -0.326917 0.132211 -0.243699 0.388388 0.330536 -0.023727 -0.028299 0.054286 -0.305235 -0.415069 -0.548508 -0.181374 -0.028269 -0.191647 0.158979 0.168639 0.403083 -0.406504 -0.349604 -0.130835
country 0.231427 0.434904 -0.050153 -0.050887 0.215675 0.499836 0.312564 0.229649 0.179346 0.131049 0.517574 0.084523 0.085889 -0.019060 0.361567 0.155714 0.310211 0.494327 -0.122161 0.162274 -0.250834 -0.181671 -0.024725 0.274941 -0.350988 0.138253 -0.215956 0.371913 0.399369 0.567550 -0.015565 0.039690 -0.279388 -0.331573 0.433887 0.630936 0.235247 0.536610 0.165095 0.417698 0.207120 0.045285 0.059191 0.351017 -0.268698 0.095787 -0.226099 0.548478 -0.070046 0.198016
hummed 0.400450 0.127875 -0.284672 -0.035479 0.240203 -0.100418 0.391059 -0.110174 0.033147 -0.124105 0.542693 0.268348 0.247811 0.193603 -0.138310 -0.070704 -0.048264 -0.221691 -0.004134 0.265260 -0.253997 -0.064914 0.584744 -0.007457 0.049989 0.301100 0.009591 0.507346 0.280415 0.520255 0.442098 0.160486 0.547576 0.339626 0.271983 0.266879 0.039854 0.145902 0.258870 -0.054571 -0.098583 0.180671 -0.277388 0.278052 0.190072 0.158669 0.274684 0.091398 0.506744 -0.184129
picked -0.406298 -0.792849 -0.548666 -0.329336 0.194677 0.096058 -0.533796 -0.120809 0.130097 -0.073561 0.211494 -0.110853 -0.388847 -0.083298 -0.569064 0.272460 0.125530 -0.103349 -0.188140 -0.334044 0.178043 -0.608045 -0.175965 -0.600050 0.316438 -0.627294 0.315073 0.006346 -0.345629 -0.338022 -0.635414 0.008498 0.086128 -0.495125 -0.661891 -0.154089 0.234184 -0.330066 -0.035778 0.240176 -0.447221 -0.637097 -0.373588 0.131833 -0.259714 0.138413 -0.243664 0.014821 -0.163665 -0.711461
his -0.331943 -0.212539 -0.284805 -0.266474 -0.153578 -0.235140 0.019370 -0.636929 -0.193475 -0.375147 0.252614 -0.057097 -0.431982 0.180871 -0.233933 0.279526 0.095434 -0.618628 -0.173431 0.315934 -0.433875 0.159489 -0.298053 0.163831 -0.389558 -0.322658 -0.088794 0.284281 -0.396926 -0.414914 0.135105 0.016561 -0.392003 -0.347072 -0.501771 -0.106983 0.112858 0.180511 -0.237654 0.126555 0.037756 0.119298 -0.368212 0.069149 0.172030 0.200780 0.097451 0.088406 -0.395649 -0.402471
most 0.161462 -0.087780 0.277473 0.452875 0.664493 0.447880 0.663328 -0.274423 0.652924 0.522568 0.634833 0.378283 -0.311486 0.698390 0.631957 -0.092312 0.661163 0.306104 0.635792 0.272406 -0.140951 0.161258 0.588727 0.034068 -0.290685 -0.251393 -0.063667 0.495477 0.060525 -0.315468 0.595002 0.475976 0.667137 0.386122 -0.166721 -0.081677 0.477902 -0.072350 0.280428 0.104207 -0.138970 0.366117 0.410207 -0.203525 -0.106424 -0.134315 -0.090880 0.618189 0.431603 -0.206553
boring 0.147702 -0.018286 0.346433 -0.258394 -0.113765 -0.389154 0.550221 0.535628 -0.062039 0.148765 0.485891 0.508796 0.545985 -0.123554 0.380519 -0.313774 0.080723 0.195190 -0.026910 0.386428 0.472103 0.581793 -0.336115 0.198298 -0.334195 0.169941 -0.062770 -0.069363 -0.312828 0.068027 0.085801 0.185682 0.328688 0.449877 0.374481 -0.302977 -0.189767 0.209383 -0.161548 -0.117730 0.507297 -0.139492 0.243411 -0.408100 0.330461 0.204611 0.184786 0.329962 0.364882 0.397491
tie -0.151651 0.263356 -0.144593 0.143806 -0.134220 0.505768 -0.087985 -0.136852 0.239489 -0.256293 0.158839 0.355665 0.076206 -0.257460 0.535919 -0.327890 -0.149379 -0.382778 0.384898 0.589441 -0.013369 -0.083780 0.121700 -0.019329 -0.244809 0.000213 -0.282067 -0.344550 0.017943 -0.000720 0.111367 0.344936 0.031645 0.374991 -0.084171 0.533354 0.113048 0.129245 0.429158 0.168074 -0.201019 -0.389001 0.157439 -0.121916 -0.114517 0.243362 -0.147199 0.617407 0.592516 0.020923
work -0.419912 -0.260476 -0.106592 0.453181 -0.017161 -0.322781 0.359524 0.148432 -0.100467 -0.289319 0.099729 -0.061734 -0.071853 0.541061 -0.190519 -0.391753 0.147556 -0.279133 0.095094 0.037190 0.238505 0.148842 0.247658 0.404919 0.584998 0.314094 0.340785 0.468614 -0.364863 0.165980 0.365617 0.708663 0.089770 0.408158 0.175846 -0.239477 -0.264014 -0.173128 -0.070004 0.508501 0.024457 -0.269814 -0.158030 -0.225731 -0.058319 0.604457 0.528601 0.189179 0.502237 0.044945
gossiped 0.118666 0.637072 0.406421 0.289813 0.276506 0.149635 0.177153 -0.240241 0.175560 0.489326 -0.203927 0.108366 -0.143775 -0.031709 0.399389 0.511962 0.230961 0.652986 -0.039998 0.546348 -0.186437 0.294220 0.516645 0.437301 0.067859 0.229518 -0.137163 -0.188488 -0.270627 0.564406 0.621508 0.595207 -0.296658 0.485478 0.563643 0.255605 0.279280 -0.068227 0.613560 0.631683 -0.245084 0.579496 0.298573 -0.317434 0.375582 -0.287753 0.649322 -0.274218 -0.186326 0.268832
happily -0.099801 0.091799 0.524538 0.424999 -0.130732 -0.276720 -0.275154 -0.218103 -0.361778 -0.222087 0.086548 0.282884 0.187776 0.033546 -0.170150 0.209865 -0.031114 -0.078839 -0.267544 0.207199 -0.311004 -0.357356 0.172646 0.361341 0.044198 0.310477 -0.271706 -0.272843 0.566139 0.349590 0.279764 0.530173 -0.192937 0.544555 0.461389 0.059197 0.106533 -0.070648 0.445798 0.358905 -0.189480 0.300594 -0.232082 0.328785 -0.037132 -0.000145 -0.094892 0.446928 0.553371 -0.299447
wrestled 0.327152 -0.399125 0.345489 0.732630 0.428128 0.653808 -0.331955 -0.074283 0.345521 0.350455 0.441051 0.463656 -0.208281 0.185294 0.543477 -0.095401 0.634282 -0.311090 0.038100 0.239094 -0.144502 -0.079513 0.534899 0.072876 0.417737 -0.170346 0.563158 -0.181925 -0.198083 -0.033782 0.157930 0.578380 0.641099 0.065503 0.273661 0.649052 -0.273326 0.267367 -0.240935 0.597116 0.139457 -0.217468 -0.241880 -0.360572 -0.316429 0.083779 0.597262 0.119921 -0.237837 0.394236
screaming -0.120885 -0.405095 -0.249983 -0.282523 0.264875 0.118183 -0.212598 0.267314 -0.144516 0.499505 -0.161541 0.107123 -0.231439 -0.145933 -0.175768 0.222985 0.441760 -0.078583 -0.176785 0.235619 0.144875 0.001418 -0.065169 -0.335367 0.399878 0.288365 0.021472 0.049128 0.488636 0.019387 0.272198 0.179396 0.247642 0.303355 0.060304 0.012500 -0.152177 0.460256 0.469700 -0.069746 0.010803 0.499040 -0.146050 -0.222041 0.496358 -0.251320 0.062974 -0.270682 0.446459 -0.079086
into 0.322663 0.046891 -0.530858 0.175701 0.128520 0.029570 -0.212909 -0.244487 -0.405626 -0.339688 -0.314834 -0.446476 -0.064563 0.295821 0.405506 -0.347662 -0.198707 -0.065447 0.250004 -0.017155 -0.521521 -0.462567 -0.022813 0.387976 -0.148314 -0.053007 -0.299556 -0.512921 0.070784 -0.102428 -0.293625 0.041457 -0.501936 -0.446824 -0.217546 -0.388069 -0.266020 -0.249624 -0.256273 -0.553528 -0.253872 -0.393442 -0.400277 0.173307 -0.231143 -0.435149 -0.288833 -0.327920 -0.591972 0.070904
high 0.607599 0.627024 0.120033 0.336424 0.200490 -0.154760 0.644913 0.169813 -0.006216 0.043980 0.030013 0.710572 -0.013363 0.331128 0.222822 0.649613 0.290802 0.227331 0.751210 0.541522 0.501937 0.724945 0.580737 0.149057 0.711381 0.170249 0.721111 0.590473 0.174724 -0.043270 0.320681 -0.018173 0.576141 0.481031 -0.121767 -0.195164 0.754184 0.421706 0.564447 0.463728 0.300351 0.035743 0.697933 0.348057 0.373675 0.501695 0.413578 0.545511 0.096162 0.682875
chair 0.549112 0.803033 0.581773 0.510315 -0.019217 -0.078822 0.377172 0.610993 0.143907 -0.149632 0.788413 0.011422 0.764500 0.814926 0.157840 0.733153 0.139641 0.028388 0.446098 0.088124 -0.021904 0.776664 0.488571 0.280476 0.115378 0.001500 0.158367 0.325141 0.255069 0.741486 0.295959 0.580490 -0.003775 0.353974 -0.071852 0.743832 -0.015944 0.358652 0.092664 0.018475 -0.152665 0.189967 0.098632 -0.034158 0.835310 0.217720 -0.099722 0.084875 0.363310 0.032696
None -0.049753 0.149622 0.015467 0.229850 -0.109359 0.090597 0.620244 -0.111178 0.572151 0.567862 0.666588 0.050286 0.250794 0.513321 0.310423 0.005672 0.222281 0.649396 0.038474 0.052735 -0.040085 0.103998 0.364407 0.374091 0.071383 -0.041031 0.043379 0.748066 0.536985 0.093835 0.161340 -0.067871 0.713012 0.694082 0.756520 0.050155 0.478842 0.040120 0.162647 -0.173458 0.408153 0.363396 0.407295 0.706229 0.138987 -0.041362 0.349851 0.194337 0.388960 -0.129129
them 0.224947 0.108065 -0.239734 0.062574 -0.504628 -0.050689 -0.301998 -0.518604 0.255335 -0.430904 -0.070991 0.225325 -0.249578 0.266282 0.325434 0.271995 -0.362454 -0.678438 -0.056592 0.214724 -0.015260 -0.614832 -0.730184 0.238963 -0.405974 0.201628 -0.018204 -0.099649 -0.019201 -0.264892 0.169587 -0.319062 -0.351290 -0.212760 -0.279216 -0.231620 0.176936 -0.416284 -0.128367 -0.093324 0.052832 -0.414034 0.270235 -0.146495 0.123574 0.159248 -0.036270 -0.267104 -0.261889 -0.433181
noticed 0.271287 0.301722 -0.533968 0.113147 0.209624 -0.765737 0.140663 0.144935 -0.280044 -0.556428 -0.341814 -0.208295 0.179094 0.368706 -0.490849 -0.449261 -0.163359 0.342850 -0.040993 -0.462340 0.207062 -0.370308 0.047395 0.178574 -0.109528 -0.395869 -0.510776 0.236144 -0.579176 -0.404085 0.266465 -0.688737 -0.054860 -0.277341 -0.322856 0.209987 -0.237859 0.113816 0.215708 0.172230 -0.039575 0.093317 -0.245580 -0.118969 -0.436322 0.220378 0.050692 0.131409 0.081111 -0.128103
tawny -0.056322 0.279674 0.644760 -0.003728 0.307327 0.643392 0.381264 -0.036573 -0.239129 0.590354 -0.237712 0.421840 0.584183 -0.073729 0.098731 0.140525 -0.225810 -0.304218 -0.231383 0.595272 -0.027036 0.236150 0.072440 0.030778 -0.318844 0.495913 0.617154 0.207299 0.101369 0.308431 -0.219037 0.492103 -0.045103 0.262073 0.125347 0.207254 0.363675 0.332917 -0.078738 0.299913 0.564853 0.372532 -0.291674 -0.059273 0.411061 -0.217792 -0.164663 -0.064011 0.390495 0.208359
owl -0.093841 -0.468748 0.105958 -0.545139 0.069898 -0.206388 -0.290424 -0.058191 -0.087173 0.142653 -0.148141 0.099020 -0.530031 0.408882 0.257330 0.273534 -0.323519 0.265667 0.035771 -0.219384 -0.318640 -0.218288 -0.024773 0.375723 -0.064992 -0.136283 0.142277 -0.181454 0.120282 -0.524760 0.006437 0.186618 0.322072 0.446558 0.190432 -0.429986 -0.431183 -0.329353 0.156227 0.261908 -0.486506 -0.152126 0.053368 -0.480996 -0.204099 -0.408065 -0.429551 0.165213 -0.323229 -0.474173
flutter -0.251117 0.421314 0.562007 0.237506 -0.004110 -0.198070 0.593172 0.391593 -0.089444 -0.219912 -0.266616 0.236396 -0.320237 0.420217 0.282970 0.172590 -0.101587 -0.035428 0.147070 0.620799 -0.004024 0.600879 -0.229946 0.121656 0.382747 0.523472 0.364824 -0.249658 0.365042 -0.325347 0.374302 0.598426 -0.023959 0.250020 0.356303 -0.245496 0.266896 0.246491 0.238817 -0.073210 0.324173 0.483281 -0.298199 -0.160987 0.364714 0.429288 0.485463 0.241680 -0.067592 -0.053746
past -0.159247 -0.566081 -0.632439 0.192738 -0.059751 0.270053 -0.563171 -0.635446 -0.223089 -0.061523 -0.351392 -0.644413 0.025313 0.027008 -0.127029 -0.037828 0.267579 -0.077195 -0.702534 -0.026717 -0.647187 -0.644440 0.088510 -0.237755 0.291212 -0.170935 -0.602873 -0.144076 -0.575787 -0.414300 -0.009847 -0.441580 -0.070047 -0.427916 -0.145470 -0.155864 -0.261177 0.087220 -0.205755 -0.414555 0.075089 -0.557095 0.030982 0.101545 -0.095541 0.180221 0.048897 0.127546 -0.009654 -0.205269
window -0.283770 0.023348 -0.054293 -0.046972 -0.034520 0.250695 0.452181 -0.084749 0.451740 0.496389 0.079902 -0.341172 0.615649 0.059974 -0.091944 -0.041427 0.637485 0.569697 0.145738 -0.200328 -0.341486 0.362026 0.594487 0.240902 -0.123561 -0.177318 0.461586 -0.050869 0.214116 -0.171101 0.025263 0.579771 0.464581 0.039743 0.487061 -0.292086 -0.059071 -0.017590 -0.068647 0.083994 -0.319130 0.320564 0.574847 -0.390598 -0.256969 -0.244614 -0.143745 0.241435 0.033424 0.519629
At 0.699756 0.403828 0.042631 0.011992 0.769517 0.420867 0.409367 0.473431 0.373335 0.742732 0.493871 0.414412 0.585654 0.628677 0.767100 0.823128 -0.016091 0.606053 0.680425 0.860385 0.342455 0.311595 0.717330 0.386605 0.389125 0.428437 0.381146 0.522059 0.096999 0.771289 0.274133 0.488114 0.383823 0.638020 0.394775 0.035552 0.665004 -0.139578 0.536528 0.459181 -0.099697 0.786086 0.033102 0.114480 0.149004 0.631814 0.532703 0.716688 0.267869 0.458169
half 0.569581 0.304958 0.402823 -0.106227 -0.051167 -0.032155 0.738295 0.251972 0.060742 0.242497 0.331619 0.064972 -0.144526 0.645634 0.272885 0.453949 0.028730 0.598378 0.566076 0.677725 -0.176249 -0.216545 0.603660 -0.058349 0.267327 0.697206 0.601753 0.108166 0.340629 0.083469 0.398788 0.664478 0.062519 0.069696 -0.000075 0.576373 0.714188 0.364613 0.345153 0.413206 0.216229 -0.056993 0.177061 0.019431 -0.211934 0.375938 0.497463 0.369049 -0.122801 0.412469
eight 0.155375 0.433514 0.324595 0.620585 0.195797 0.478533 0.302886 0.572489 0.434776 -0.127991 -0.048572 0.164381 0.235129 0.178938 0.417058 -0.099034 0.448198 0.161419 0.179570 0.478739 0.524409 -0.146447 0.411637 0.527632 0.066524 -0.157355 0.286183 -0.242552 0.430009 -0.254512 0.606166 -0.069080 0.545296 0.373002 0.189585 -0.009638 0.271431 0.364585 0.544649 -0.120200 0.330920 0.015031 0.645679 -0.102269 0.491695 0.360575 0.163796 0.046983 -0.110858 0.449671
briefcase -0.141985 0.077379 -0.175499 0.285276 0.341493 0.381216 0.590599 -0.242854 0.682943 0.719209 0.092883 0.598769 0.417953 -0.019800 -0.170561 0.061835 -0.060280 0.061853 0.498005 -0.005472 -0.345680 0.480259 0.367938 0.153180 0.558509 -0.186812 0.370018 -0.082119 0.085388 -0.185972 0.417829 0.356230 0.186755 0.155202 0.004361 -0.264119 -0.178246 0.643202 0.627188 0.556265 0.223523 0.612157 0.178337 0.459547 0.668701 0.276256 -0.192274 -0.072920 0.489331 0.242119
pecked 0.022323 -0.079577 0.610656 0.521937 0.500766 0.161173 -0.082843 0.077380 0.195510 0.671414 0.468483 0.088686 0.369787 0.126280 0.150309 0.579135 0.659801 0.285856 -0.140595 -0.003423 0.129848 0.593868 0.682487 0.414700 0.055136 0.155126 0.608283 0.292877 -0.026552 0.351915 -0.134509 0.420121 0.294608 0.115970 0.076116 -0.243893 0.462589 -0.072293 0.458643 -0.272917 0.459113 0.099890 -0.104873 0.466123 0.184635 0.492975 0.223247 -0.108368 0.646246 0.430423
cheek 0.105524 0.288499 0.042124 0.636848 0.533571 0.001558 0.090814 -0.146587 -0.123272 -0.073759 0.356815 -0.072863 0.314423 0.045484 0.397532 -0.196153 -0.237987 -0.131579 0.213294 -0.253802 -0.345989 -0.092190 -0.064266 0.433891 0.494835 0.369074 0.618818 0.302092 0.052775 0.612576 0.374880 0.286646 0.299146 -0.294860 0.547488 -0.052463 0.633080 0.063582 -0.233996 0.218310 0.434840 -0.181165 -0.205833 0.241170 0.530460 0.480902 0.326849 0.585609 0.500199 -0.302474
tried 0.572305 0.274942 -0.307900 -0.086732 -0.158141 0.173460 0.091401 0.254650 0.667499 0.089436 0.639468 0.426595 -0.135408 -0.021501 -0.273289 -0.235999 0.304887 -0.118965 -0.151245 0.318229 0.584784 -0.070262 0.226461 -0.313258 0.121057 -0.146216 -0.299288 -0.390735 -0.186579 0.294162 -0.054853 0.340197 0.594383 0.144950 0.664430 0.615158 0.520576 0.345263 0.300823 -0.211257 0.565654 -0.084471 0.179662 0.010373 0.150028 -0.210935 -0.133814 0.366781 0.557062 0.208104
